{"version": "0.5.4", "metadata": {"date": {"year": 2025, "month": 10, "day": 16, "hour": 22, "minute": 49, "second": 27}, "loudness": -16.773427963256836, "gain": 0.00932098331240488, "training": {"settings": {"ignore_checks": true}, "data": {"latency": {"manual": null, "calibration": {"algorithm_version": 1, "delays": [-2], "safety_factor": 1, "recommended": -3, "warnings": {"matches_lookahead": false, "disagreement_too_high": false}}}, "checks": {"version": 3, "passed": false}}, "validation_esr": 0.011841447997674509}}, "architecture": "WaveNet", "config": {"layers": [{"input_size": 1, "condition_size": 1, "head_size": 8, "channels": 16, "kernel_size": 3, "dilations": [1, 2, 4, 8, 16, 32, 64, 128, 256, 512], "activation": "Tanh", "gated": false, "head_bias": false}, {"input_size": 16, "condition_size": 1, "head_size": 1, "channels": 8, "kernel_size": 3, "dilations": [1, 2, 4, 8, 16, 32, 64, 128, 256, 512], "activation": "Tanh", "gated": false, "head_bias": true}], "head": null, "head_scale": 0.02}, "weights": [-0.013994750566780567, 0.5302963256835938, -0.6800641417503357, -0.7939534783363342, -0.312151163816452, 0.22838644683361053, 0.012481636367738247, 0.8045250773429871, -0.1089746281504631, 0.252029687166214, -0.2843552827835083, -0.19500935077667236, -0.9765759110450745, -0.6843279004096985, -0.41360270977020264, -0.07141948491334915, 0.06361941993236542, 0.10043325275182724, -0.10831441730260849, -0.1124829649925232, 0.007259913254529238, 0.12351182848215103, 0.020188642665743828, 0.15351586043834686, -0.025146912783384323, 0.06712265312671661, 0.17705370485782623, -0.1376062035560608, -0.04176168516278267, 0.008924602530896664, -0.05764201283454895, 0.07470866292715073, -0.13760662078857422, -0.06295119971036911, -0.0802919939160347, -0.14071176946163177, -0.10031630843877792, 0.07168404012918472, 0.018051648512482643, 0.07332463562488556, 0.05366482585668564, -0.03334116190671921, 0.01667308248579502, -0.18450255692005157, -0.14797475934028625, -0.069813571870327, 0.14090006053447723, 0.12752287089824677, -0.07038822770118713, 0.04203309118747711, 0.13575494289398193, 0.1396816521883011, 0.10979317128658295, 0.06613621115684509, 0.09357665479183197, -0.03251708671450615, 0.07353965193033218, -0.11500672250986099, -0.047839317470788956, -0.027877315878868103, 0.06330075114965439, 0.03640824183821678, -0.09444272518157959, -0.006926956120878458, 0.0510074645280838, -0.0688086673617363, -0.05424764007329941, 0.05096004530787468, 0.1303316056728363, 0.1620417982339859, -0.1292506754398346, -0.09374939650297165, 0.03248072788119316, 0.10029803961515427, 0.08308331668376923, 0.10306751728057861, 0.013514968566596508, -0.16307194530963898, -0.007670306600630283, -0.07353174686431885, -0.09624269604682922, 0.1498815417289734, 0.06524509936571121, -0.16271312534809113, -0.01246225368231535, -0.005348517559468746, 0.017624763771891594, -0.04237117990851402, 0.04175258427858353, -0.12217298150062561, 0.033377960324287415, 0.08897598087787628, 0.14085553586483002, 0.07477245479822159, -0.16132338345050812, -0.13326716423034668, 0.049501169472932816, 0.012915887869894505, -0.15411877632141113, -0.10916104167699814, 0.11677316576242447, 0.055665452033281326, -0.08671854436397552, -0.05491283908486366, -0.17875240743160248, -0.025979826226830482, -0.12641601264476776, -0.1521412581205368, -0.03164392337203026, 0.023767918348312378, -0.11278270184993744, 0.04777535796165466, -0.07215223461389542, 0.060036156326532364, 0.16629351675510406, -0.11964821815490723, 0.05199485644698143, -0.06562375277280807, 0.01601976901292801, -0.054947253316640854, 0.12479434907436371, 0.00478831771761179, -0.16011469066143036, 0.13996510207653046, -0.1393914669752121, -0.1705571860074997, 0.035139862447977066, -0.06985920667648315, 0.03137482330203056, -0.1916748583316803, -0.06827087700366974, 0.03685455769300461, -0.1304968297481537, -0.0031747492030262947, 0.1922643631696701, -0.08571164309978485, 0.01682298816740513, -0.08316519111394882, 0.11740852892398834, 0.09058117121458054, 0.21815399825572968, 0.01612449809908867, 0.13650387525558472, -0.09341820329427719, -0.055260609835386276, -0.06587506085634232, 0.013763481751084328, 0.07486894726753235, -0.07627133280038834, -0.20016369223594666, -0.06445823609828949, -0.12548919022083282, -0.11785757541656494, 0.15073080360889435, 0.07620903104543686, -0.2260497659444809, 0.16267897188663483, -0.05674039572477341, -0.08209863305091858, 0.060313768684864044, -0.024652693420648575, 0.04782693088054657, -0.1985841542482376, -0.14407706260681152, -0.11258823424577713, 0.08455990254878998, -0.04396384209394455, 0.14559191465377808, -0.2090488225221634, 0.012146475724875927, 0.21882759034633636, -0.14104339480400085, 0.14725571870803833, 0.13878636062145233, -0.21296556293964386, 0.074091337621212, -0.10038996487855911, 0.019887737929821014, 0.12462373822927475, -0.1490250527858734, 0.03942035138607025, -0.052132125943899155, 0.012043057009577751, 0.121895432472229, 0.07526832818984985, 0.12406355142593384, -0.13211551308631897, -0.046357471495866776, -0.20220929384231567, 0.1645568162202835, 0.13272611796855927, 0.1836898773908615, -0.18703387677669525, 0.021494654938578606, -0.01491333544254303, -0.16499857604503632, -0.0618738979101181, 0.14097648859024048, -0.16734640300273895, 0.01824970170855522, 0.09671427309513092, 0.010785432532429695, -0.0897655114531517, -0.01011944655328989, -0.1669834554195404, 0.1114240288734436, 0.05054539814591408, 0.043190378695726395, 0.04296542704105377, 0.10588189959526062, -0.03965339809656143, -0.04919832572340965, -0.10243027657270432, -0.0018529656808823347, 0.02263556607067585, 0.14042595028877258, -0.14046451449394226, -0.05248633027076721, 0.2394692599773407, -0.14683115482330322, 0.008224674500524998, 0.25962719321250916, 0.020067540928721428, -0.014856714755296707, -0.23925377428531647, 0.10440001636743546, -0.08064909279346466, -0.05592292919754982, 0.006750285159796476, -0.044680334627628326, -0.12047421187162399, 0.1482064127922058, 0.024201683700084686, 0.2319527119398117, 0.0414961613714695, -0.10864337533712387, -0.04904355853796005, -0.06731145083904266, -0.04196817800402641, 0.15790440142154694, 0.014496576972305775, 0.12347949296236038, 0.0699155405163765, -0.034933820366859436, 0.09797831624746323, -0.01685413345694542, 0.07551772147417068, -0.09648305177688599, 0.12372089177370071, -0.05429266765713692, -0.05551384389400482, 0.13876639306545258, 0.08789196610450745, -0.044142141938209534, 0.03021756187081337, -0.108254075050354, -0.13273493945598602, 0.011117185465991497, -0.0022939168848097324, -0.07867993414402008, -0.004616221878677607, 0.025514690205454826, 0.05627787113189697, 0.031105563044548035, 0.10605395585298538, -0.06762174516916275, -0.12039753049612045, 0.09983978420495987, 0.10192189365625381, -0.037300676107406616, -0.01231414545327425, -0.05174025893211365, -0.06311380118131638, -0.02731439471244812, -0.1048571839928627, -0.11944347620010376, 0.11027996987104416, -0.07393452525138855, 0.06318572163581848, -0.014991502277553082, 0.0002893020282499492, -0.16030184924602509, -0.04412190988659859, 0.12996448576450348, 0.09667706489562988, 0.059351373463869095, -0.06455060094594955, -0.031591709703207016, 0.026816556230187416, -0.01951737329363823, -0.16301220655441284, 0.11034955084323883, 0.025526143610477448, -0.0831463634967804, 0.0236116424202919, -0.10835031419992447, 0.02049839124083519, -0.050533734261989594, 0.04138241335749626, -0.1264391839504242, -0.011766938492655754, 0.06626462936401367, -0.111121766269207, 0.14065128564834595, 0.04970519617199898, -0.18565776944160461, 0.09893117100000381, 0.055454321205616, 0.15199430286884308, -0.10078158229589462, -0.1154540479183197, -0.11833835393190384, 0.1285366415977478, -0.0485185831785202, -0.04194412752985954, 0.1781000792980194, -0.06826409697532654, -0.09039871394634247, 0.14131049811840057, 0.004087245557457209, 0.10057737678289413, -0.06532017141580582, -0.15768969058990479, 0.02326100878417492, 0.06570090353488922, 0.12640412151813507, 0.1806797832250595, -0.06177700683474541, 0.0879841074347496, -0.14775049686431885, -0.021586032584309578, -0.13311046361923218, 0.23208023607730865, 0.006005566101521254, -0.09259840101003647, -0.03318182751536369, 0.19336584210395813, 0.15470334887504578, 0.034613825380802155, 0.19780009984970093, -0.029675697907805443, -0.14713774621486664, 0.19942303001880646, 0.0851258784532547, -0.18239524960517883, 0.21157410740852356, 0.07576104998588562, -0.015141519717872143, -0.007690871134400368, 0.10585517436265945, -0.11290940642356873, 0.2399991750717163, -0.03878949210047722, -0.06420540809631348, 0.10528366267681122, 0.09850483387708664, 0.11643338948488235, -0.006509114988148212, -0.13865859806537628, -0.13184919953346252, -0.025629613548517227, -0.18107137084007263, -0.28405091166496277, 0.190387561917305, 0.04253050684928894, -0.024730224162340164, 0.19149765372276306, -0.09377996623516083, 0.059995148330926895, -0.09853658080101013, -0.10673090070486069, 0.15240883827209473, -0.20524384081363678, -0.03129133582115173, 0.027199234813451767, -0.156977578997612, 0.09208705276250839, -0.0355265736579895, 0.19145715236663818, 0.14596354961395264, 0.28727373480796814, -0.1150665432214737, 0.028100935742259026, -0.031099019572138786, 0.12573936581611633, 0.1123884916305542, -0.08703181892633438, 0.16876733303070068, -0.09002606570720673, -0.09822247922420502, 0.09147591143846512, -0.07317312061786652, -0.24810346961021423, -0.005334688816219568, -0.14765439927577972, -0.06828589737415314, 0.17806947231292725, -0.008073950186371803, -0.23614314198493958, 0.23975686728954315, 0.09552400559186935, -0.05474047362804413, -0.027142684906721115, 0.15040862560272217, 0.14276939630508423, -0.14510823786258698, 0.11751797050237656, 0.0245180856436491, -0.020334923639893532, 0.06160498037934303, -0.16733933985233307, 0.012336546555161476, 0.10620883852243423, -0.07510843127965927, -0.06666764616966248, -0.032492004334926605, 0.03876057267189026, -0.06525348126888275, -0.011925099417567253, 0.12728099524974823, -0.032388415187597275, -0.06949762254953384, 0.09214339405298233, 0.034871794283390045, 0.06806818395853043, -0.19895796477794647, 0.025247901678085327, -0.09293125569820404, 0.016121257096529007, 0.012921841815114021, -0.11835181713104248, -0.025494994595646858, 0.1602943390607834, -0.003693854436278343, -0.17661169171333313, -0.011960134841501713, 0.011516055092215538, -0.19538404047489166, 0.1057121530175209, -0.15022999048233032, -0.22309207916259766, -0.1052752435207367, -0.0466139018535614, 0.014362448826432228, -0.10013119876384735, 0.14788414537906647, -0.10590109974145889, 0.12585203349590302, 0.01983289234340191, -0.14389191567897797, 0.19104325771331787, 0.10675786435604095, 0.18894846737384796, 0.02000572718679905, -0.12628474831581116, 0.07394902408123016, 0.05738148093223572, 0.03734095022082329, -0.16259364783763885, 0.011465483345091343, -0.17019252479076385, -0.10120440274477005, 0.08131516724824905, -0.08455021679401398, 0.0888468474149704, 0.02479809895157814, 0.005689213518053293, -0.0942995473742485, -0.10043099522590637, -0.01296315249055624, 0.1103937029838562, 0.09033524990081787, 0.06269794702529907, -0.05153770372271538, 0.11402682960033417, -0.11362098157405853, -0.08045921474695206, 0.013072741217911243, -0.10987263172864914, 0.0268427561968565, -0.04660148173570633, -0.09648171067237854, -0.16126598417758942, 0.1319933831691742, -0.04655521363019943, 0.06362979114055634, 0.14112818241119385, 0.048352889716625214, -0.04233589023351669, 0.007588615175336599, -0.06184158846735954, -0.02696787752211094, 0.12417656928300858, -0.08132322132587433, 0.11327270418405533, 0.06789080053567886, -0.14671723544597626, -0.14460299909114838, 0.1841040551662445, 0.18139752745628357, -0.03791069611907005, 0.05401954427361488, 0.02062486670911312, -0.012164413928985596, 0.16574251651763916, -0.12970460951328278, -0.05262206494808197, 0.10561306774616241, -0.09028761833906174, -0.04507610946893692, 0.005016031209379435, 0.13695934414863586, 0.05178413540124893, -0.10310523211956024, -0.005092163570225239, 0.05700071156024933, -0.09448909759521484, 0.06496704369783401, 0.1814921647310257, -0.06043420732021332, 0.006745191756635904, -0.11651723086833954, 0.11349640041589737, -0.05777095630764961, 0.006358653772622347, -0.12439828366041183, 0.08480322360992432, -0.1309506595134735, 0.05032551288604736, -0.11502537131309509, 0.05228545144200325, 0.19264519214630127, -0.16142503917217255, -0.2154208868741989, -0.0636986792087555, -0.052552297711372375, -0.13443778455257416, -0.047949835658073425, -0.10187093913555145, -0.0687912255525589, -0.028141969814896584, 0.0572235994040966, -0.07765664905309677, 0.014070326462388039, 0.04533952847123146, 0.20828835666179657, -0.10706101357936859, 0.008254384621977806, -0.1212664246559143, 0.18767252564430237, -0.13622614741325378, -0.06924304366111755, 0.09931774437427521, -0.09304028749465942, 0.09589181840419769, -0.05854929983615875, -0.032395727932453156, 0.03368626534938812, 0.04594402760267258, 0.010085267946124077, -0.20344355702400208, -0.03872719407081604, -0.003812523791566491, 0.06196926161646843, -0.07032081484794617, 0.13764867186546326, -0.0992126315832138, 0.019872387871146202, 0.10119009017944336, 0.12888982892036438, 0.06749824434518814, 0.08819471299648285, -0.10586588829755783, -0.04752909764647484, -0.013887087814509869, 0.18300043046474457, -0.09530646353960037, -0.136330246925354, 0.12678171694278717, 0.09499946981668472, -0.04253246635198593, -0.05202292650938034, -0.17671413719654083, 0.0339919775724411, 0.05584695190191269, -0.11932597309350967, 0.026160649955272675, 0.12073313444852829, 0.06863093376159668, 0.04935675859451294, 0.015386009588837624, -0.21196866035461426, -0.13057225942611694, 0.026150953024625778, 0.1470835655927658, 0.0815894603729248, 0.010253963991999626, 0.042737606912851334, 0.1147681251168251, -0.006272898055613041, -0.035881783813238144, -0.07570908963680267, -0.23735669255256653, 0.22617574036121368, -0.0789552628993988, -0.1966320276260376, 0.1659310758113861, -0.04913575202226639, 0.05817297473549843, -0.10326551645994186, -0.07303623110055923, -0.11330877989530563, 0.05402049794793129, -0.04209978133440018, 0.1881314069032669, 0.036884795874357224, 0.06808837503194809, -0.09854672104120255, 0.22810634970664978, 0.03522934764623642, 0.061841629445552826, 0.04324180632829666, 0.01622430421411991, -0.27135005593299866, 0.05073164030909538, -0.11210519075393677, -0.004875692538917065, 0.07038439810276031, -0.15339349210262299, -0.14666937291622162, 0.17915363609790802, 0.016464916989207268, -0.09111618250608444, 0.10273263603448868, 0.0350038968026638, -0.16977573931217194, 0.03291591256856918, -0.09191670268774033, -0.2103956639766693, 0.1859661191701889, -0.12547579407691956, 0.051715187728405, -0.0044725132174789906, 0.02375340647995472, -0.1474938988685608, 0.17662714421749115, -0.09463999420404434, 0.17420390248298645, -0.15058040618896484, -0.046447090804576874, 0.13358837366104126, -0.09712528437376022, 0.10598555207252502, -0.04777950420975685, -0.16024696826934814, -0.050406694412231445, -0.025270944461226463, 0.17304734885692596, -0.0700618252158165, 0.053162042051553726, 0.008731724694371223, -0.019797785207629204, 0.05119103938341141, -0.07452671229839325, -0.010727152228355408, 0.1728036105632782, -0.07300382852554321, 0.12815909087657928, -0.0928567573428154, 0.1578189581632614, -0.1544484794139862, 0.028651144355535507, -0.0658397451043129, 0.028053700923919678, 0.10688845813274384, 0.06733085215091705, -0.03263406455516815, 0.04978325217962265, 0.06183389946818352, -0.05091284587979317, 0.18092671036720276, -0.1340698003768921, -0.029496939852833748, 0.04517016187310219, 0.024506105110049248, 0.0999700278043747, 0.03133183345198631, -0.1841544508934021, 0.05939827114343643, 0.0037480080500245094, 0.07651801407337189, -0.07362252473831177, 0.13063298165798187, 0.10833311825990677, -0.005249184090644121, -0.17435064911842346, 0.12690436840057373, -0.12440844625234604, -0.005972429644316435, 0.04877348244190216, -0.08034184575080872, 0.015324055217206478, -0.09950044751167297, 0.045372821390628815, -0.05839386582374573, -0.046187467873096466, 0.015888147056102753, 0.10276391357183456, -0.11127010732889175, 0.10933689028024673, 0.02050427719950676, -0.09609121084213257, -0.128110870718956, -0.15480896830558777, 0.18336798250675201, -0.02455415576696396, 0.03984856233000755, 0.007041553501039743, 0.0845668613910675, 0.0883963480591774, 0.14730729162693024, -0.11875766515731812, -0.05827134847640991, -0.05348280072212219, -0.09974854439496994, -0.0050500910729169846, 0.1627064198255539, -0.13209232687950134, 0.049149107187986374, -0.04663397744297981, -0.042593907564878464, 0.0780487060546875, -0.0024935577530413866, -0.02292877994477749, -0.15256845951080322, 0.15094073116779327, -0.003870118409395218, -0.04202398657798767, 0.03465341776609421, -0.11438492685556412, -0.17632728815078735, 0.04595889896154404, 0.12699982523918152, 0.021399695426225662, 0.03335247188806534, 0.13726495206356049, 0.15931713581085205, -0.11193285137414932, -0.0059690698981285095, 0.013147946447134018, -0.15435799956321716, -0.009539375081658363, 0.051948532462120056, 0.16041764616966248, 0.0040657129138708115, -0.018153859302401543, -0.06580603867769241, 0.09597928822040558, -0.12262402474880219, -0.06396263837814331, 0.023698875680565834, 0.1355666220188141, -0.17847567796707153, 0.12187982350587845, -0.0040766396559774876, -0.060489755123853683, -0.020929500460624695, 0.18276365101337433, -0.1503729224205017, -0.03198105841875076, 0.10733060538768768, -0.16430506110191345, 0.09227420389652252, 0.13820433616638184, 0.05344810336828232, -0.07931281626224518, 0.20612159371376038, -0.12221746891736984, 0.1558007001876831, -0.0774436965584755, -0.16587728261947632, 0.11139314621686935, 0.12095042318105698, 0.0018787586595863104, -0.07417042553424835, -0.08412615954875946, -0.11137106269598007, -0.09299177676439285, 0.08260440081357956, -0.0018236084142699838, -0.05764591693878174, -0.027895940467715263, 0.07345739006996155, 0.03540833666920662, -0.03405707702040672, -0.023512599989771843, -0.1439087986946106, -0.015917493030428886, -0.07438242435455322, 0.005745598115026951, 0.4471917748451233, -0.4030906558036804, 0.7293102145195007, -0.6228939890861511, 0.028978630900382996, 0.8453717827796936, 0.9161821007728577, -0.6521418690681458, 0.1466774195432663, 0.06830544024705887, -0.5117990970611572, -0.30110764503479004, 0.1851339489221573, -0.6606948971748352, 0.1400744915008545, 0.4667423665523529, -0.11790864914655685, 0.173451766371727, -0.02886386215686798, 0.12168250977993011, 0.24545560777187347, -0.06742417067289352, 0.121291384100914, -0.07241961359977722, -0.044855739921331406, -0.028425054624676704, 0.014947334304451942, -0.06464613229036331, 0.045110367238521576, 0.006590442731976509, 0.15259945392608643, -0.002079387428238988, -0.04921363294124603, -0.07452261447906494, -0.20837192237377167, 0.08448728919029236, 0.02913634479045868, -0.11247876286506653, -0.07568646967411041, 0.09730071574449539, -0.03534365072846413, 0.17540507018566132, 0.049035556614398956, 0.04748794436454773, 0.12724411487579346, -0.05809253081679344, 0.08097466826438904, 0.10952996462583542, 0.02415730617940426, 0.02808924950659275, 0.031538400799036026, 0.1650896966457367, -0.1038929894566536, -0.07399655878543854, 0.1269468367099762, -0.2060563564300537, 0.02258036471903324, -0.08023495972156525, 0.12969352304935455, -0.24014422297477722, 0.15559297800064087, 0.21239329874515533, 0.06330453604459763, 0.019095003604888916, 0.1544945389032364, -0.13850313425064087, -0.04294672980904579, -0.13596086204051971, -0.022926421836018562, 0.07770117372274399, 0.016493437811732292, 0.05365978181362152, -0.2350832223892212, 0.035902950912714005, 0.01683758944272995, 0.007749661337584257, 0.15792086720466614, 0.22955863177776337, -0.1647682636976242, -0.08926977217197418, -0.05334442853927612, -0.2725508213043213, -0.12845051288604736, 0.15415503084659576, 0.14196448028087616, 0.19458971917629242, 0.19495946168899536, -0.25751689076423645, 0.09576970338821411, 0.2637616991996765, -0.16333788633346558, 0.16000422835350037, 0.07327079027891159, 0.11057109385728836, -0.035516057163476944, 0.11561387032270432, -0.2528707683086395, -0.01636069267988205, 0.10622700303792953, 0.06330987066030502, 0.18550686538219452, 0.21344085037708282, 0.24987441301345825, 0.21526819467544556, 0.18355049192905426, -0.02929038368165493, -0.14974932372570038, -0.061625123023986816, 0.005415540188550949, -0.12937702238559723, 0.1436408907175064, 0.012801465578377247, 0.05521288514137268, 0.05829852074384689, 0.24806644022464752, 0.13991807401180267, -0.24908621609210968, -0.18631458282470703, 0.13047413527965546, -0.007293118163943291, 0.09245152771472931, -0.23617957532405853, -0.21506063640117645, 0.18483369052410126, 0.2188512235879898, -0.20371870696544647, 0.07019190490245819, -0.10508046299219131, 0.18601766228675842, 0.05329079180955887, 0.2837674915790558, -0.2648151218891144, -0.26707127690315247, 0.1572122424840927, 0.2565271556377411, 0.12688252329826355, 0.18784944713115692, -0.19484956562519073, 0.1921355426311493, -0.20892123878002167, 0.0959613174200058, -0.17570440471172333, -0.08400063216686249, 0.032871637493371964, -0.10739854723215103, -0.036973435431718826, -0.26723262667655945, -0.21691268682479858, 0.13047920167446136, -0.08252134919166565, -0.17642688751220703, -0.060101620852947235, -0.22223816812038422, -0.19690914452075958, 0.1566070169210434, 0.129241481423378, -0.00030805423739366233, -0.12378518283367157, 0.08463700115680695, 0.02626132220029831, -0.26738178730010986, 0.04325336217880249, 0.2574135959148407, -0.27803415060043335, -0.29087409377098083, -0.0033096694387495518, 0.21576851606369019, -0.0008927821181714535, 0.07974106073379517, 0.1943531632423401, 0.16880984604358673, 0.11017958074808121, 0.2859381437301636, 0.15624374151229858, -0.1279597282409668, -0.14306338131427765, 0.1488107442855835, 0.17175616323947906, -0.26917481422424316, 0.1457558423280716, -0.02190813608467579, -0.20327678322792053, 0.037483345717191696, -0.2003970742225647, 0.01944609358906746, -0.15015468001365662, -0.2275523692369461, -0.034803714603185654, -0.11343257129192352, 0.13994185626506805, 0.00860792025923729, 0.2788664698600769, 0.017995135858654976, -0.13960474729537964, 0.15053991973400116, -0.003555059665814042, 0.052402447909116745, -0.07821499556303024, -0.02246006950736046, 0.011323891580104828, -0.012754581868648529, -0.19410349428653717, 0.015980536118149757, -0.17852282524108887, -0.09390684217214584, 0.12949280440807343, -0.1907252073287964, -0.19079333543777466, -0.036773454397916794, -0.03472733125090599, 0.010776671580970287, 0.062748983502388, 0.1398007571697235, -0.16258788108825684, -0.04833197593688965, 0.12526582181453705, 0.1969364583492279, -0.04076965153217316, -0.17823836207389832, 0.030268702656030655, 0.10801070183515549, -0.1473320722579956, -0.16232475638389587, 0.13458454608917236, -0.006527686957269907, -0.18458017706871033, -0.1724673956632614, 0.11292681843042374, -0.0739423930644989, 0.1816500872373581, 0.1689673215150833, 0.023233147338032722, -0.030696257948875427, -0.0977369099855423, -0.032097287476062775, -0.010991295799612999, -0.2229139357805252, -0.05638432502746582, -0.22562214732170105, 0.14990754425525665, -0.15613801777362823, 0.2457388937473297, -0.07008925080299377, -0.15296971797943115, 0.09438420832157135, 0.04518406093120575, 0.16114360094070435, 0.1496574580669403, -0.2320108711719513, 0.14495202898979187, -0.031410541385412216, -0.12291096150875092, 0.13917678594589233, 0.16964982450008392, -0.20154821872711182, -0.07811948657035828, 0.03305023908615112, 0.1873929798603058, 0.14313720166683197, -0.07527559995651245, -0.17609457671642303, 0.06939905881881714, 0.03875202313065529, 0.5738984942436218, -0.1255113035440445, -0.16767607629299164, 0.15928494930267334, -0.16607162356376648, 0.07185583561658859, 0.24052424728870392, -0.005451935343444347, -0.2778920829296112, 0.1516193151473999, -0.1784692108631134, 0.24342668056488037, -0.13484099507331848, -0.16597485542297363, -0.08226163685321808, 0.12245950847864151, -0.006385834887623787, 0.11128512769937515, -0.18233758211135864, 0.11418808251619339, 0.03896978124976158, 0.10236029326915741, 0.19672569632530212, 0.13359953463077545, -0.034400247037410736, 0.026164399459958076, -0.08005248010158539, -0.07591323554515839, 0.043331533670425415, -0.07921507954597473, 0.09095980226993561, 0.0013976979535073042, -0.005744907073676586, -0.02156933769583702, -0.09540371596813202, 0.015740592032670975, -0.07237022370100021, -0.012827437371015549, -0.014851763844490051, 0.08441774547100067, 0.06088327243924141, -0.12606371939182281, 0.13041208684444427, -0.10366341471672058, -0.13301149010658264, 0.10888664424419403, -0.056410934776067734, -0.11154841631650925, -0.08273976296186447, -0.0065974947065114975, 0.0798020213842392, -0.17915701866149902, -0.19855479896068573, -0.027999695390462875, -0.06777632236480713, -0.06796180456876755, -0.015279951505362988, -0.08339873701334, -0.09535884112119675, -0.1046275869011879, -0.07752914726734161, -0.06781759113073349, 0.010979597456753254, -0.12708276510238647, -0.03930482268333435, 0.09544472396373749, -0.1303776651620865, -0.06699895113706589, 0.08981367945671082, -0.0056936233304440975, 0.07100788503885269, -0.1078137680888176, -0.06315138936042786, 0.0526503324508667, 0.047258906066417694, 0.22224333882331848, -0.14969322085380554, -0.12248104810714722, 0.0010245476150885224, -0.09572545439004898, 0.07436409592628479, 0.15349027514457703, -0.19035355746746063, 0.02178177796304226, -0.07540759444236755, 0.06229439750313759, -0.22455212473869324, 0.09312359243631363, -0.10279376059770584, -0.09859182685613632, -0.13892456889152527, 0.12763182818889618, -0.02195746824145317, -0.09345623850822449, 0.18623504042625427, 0.03713277354836464, -0.0531369186937809, -0.13382002711296082, -0.0896938294172287, 0.08108675479888916, 0.10724729299545288, 0.18832318484783173, -0.27746114134788513, 0.021750621497631073, -0.12430641800165176, 0.13011638820171356, -0.12861910462379456, -0.017842769622802734, 0.2306412160396576, -0.1583879292011261, 0.005641640163958073, 0.046324990689754486, -0.008807825855910778, 0.042117226868867874, 0.11183887720108032, -0.109824538230896, 0.10946149379014969, -0.011891958303749561, -0.20672820508480072, 0.4055801331996918, -0.4147286117076874, -0.13969635963439941, -0.15034960210323334, -0.0020126623567193747, 0.18760457634925842, 0.15549974143505096, -0.11530547589063644, -0.07971932739019394, 0.04922736436128616, 0.07780224084854126, 0.07770764827728271, -0.03558257594704628, -0.05086115002632141, 0.05919896811246872, -0.11859357357025146, 0.07565166801214218, 0.020088838413357735, 0.10924417525529861, 0.07726605236530304, 0.16201895475387573, -0.06225007027387619, -0.12930089235305786, 0.010137591511011124, -0.02330021560192108, 0.09876183420419693, -0.07385050505399704, -0.15801967680454254, -0.02302250638604164, -0.0009237256017513573, 0.15042254328727722, -0.1514974981546402, -0.19401295483112335, -0.21319161355495453, 0.11980915814638138, 0.03357643634080887, -0.09284809976816177, 0.11002974957227707, 0.026967627927660942, -0.016026239842176437, -0.008533325046300888, -0.07478935271501541, -0.08785425871610641, 0.07683298736810684, -0.1566065102815628, 0.06491082906723022, 0.09647082537412643, 0.015417482703924179, 0.2583243250846863, 0.15204469859600067, -0.07540027797222137, -0.029042813926935196, -0.011275691911578178, -0.1584313064813614, 0.050934478640556335, 0.055741772055625916, 0.12602299451828003, -0.13054479658603668, -0.21384921669960022, 0.10704232007265091, 0.09647456556558609, -0.1420353651046753, -0.03918183594942093, -0.0716424435377121, -0.07691451907157898, -0.1025506854057312, 0.08767887949943542, 0.03219025582075119, 0.05349579080939293, 0.07637693732976913, 0.06708722561597824, -0.18957896530628204, 0.012330040335655212, 0.08889693021774292, 0.12808401882648468, -0.10200119018554688, -0.024443238973617554, 0.0713898092508316, -0.22231270372867584, 0.10766784846782684, 0.16417831182479858, -0.04619637504220009, -0.01932331919670105, 0.10460441559553146, 0.06696338951587677, 0.10756240785121918, 0.18016435205936432, 0.1148342713713646, -0.0995931625366211, 0.17222975194454193, -0.08485623449087143, -0.16915658116340637, 0.016167428344488144, -0.08271262794733047, 0.05817188695073128, 0.04889716953039169, 0.05572482571005821, 0.18747693300247192, -0.14084064960479736, -0.04910985752940178, 0.021730788052082062, 0.10812418907880783, 0.13420948386192322, -0.029165783897042274, -0.10042552649974823, 0.05353684723377228, -0.040701039135456085, -0.12597472965717316, 0.06647434085607529, 0.11247245222330093, -0.08015905320644379, -0.035036150366067886, -0.1121792271733284, -0.08320634812116623, 0.07624375075101852, -0.08587779849767685, 0.13743115961551666, -0.10576065629720688, -0.031122662127017975, 0.055335212498903275, 0.11115162819623947, 0.1079544648528099, 0.05507991835474968, 0.037661805748939514, -0.04752396047115326, -0.03126192092895508, -0.09430070221424103, 0.010503645986318588, 0.08015988767147064, -0.0473722368478775, 0.006946842186152935, -0.13876990973949432, 0.024742256850004196, 0.11900356411933899, -0.20314908027648926, -0.1542317420244217, 0.11081413924694061, -0.03418925032019615, -0.0614502988755703, 0.01854761131107807, -0.052712131291627884, -0.15711650252342224, -0.12083809077739716, 0.2288760393857956, -0.08847275376319885, -0.016795476898550987, 0.06829603761434555, 0.055655770003795624, -0.08771298080682755, -0.28624624013900757, -0.002978075761348009, 0.028133269399404526, 0.05593752861022949, 0.05412739887833595, -0.013243096880614758, -0.020381096750497818, 0.06360206753015518, -0.03239531069993973, -0.08370601385831833, 0.0939851701259613, -0.0006471523083746433, 0.06390731036663055, -0.11780295521020889, 0.06399542093276978, 0.10422354191541672, -0.19945856928825378, 0.04853618144989014, 0.05863945558667183, -0.15656164288520813, 0.2166489064693451, 0.20672933757305145, 0.2688034772872925, -0.1297784298658371, 0.027131691575050354, -0.24739335477352142, 0.02988339029252529, 0.11992591619491577, 0.14729484915733337, -0.017720790579915047, 0.20070622861385345, -0.05593811720609665, -0.01549176312983036, 0.17046009004116058, 0.12749280035495758, -0.016639674082398415, 0.10063852369785309, 0.07880941033363342, 0.07017552107572556, 0.0457756407558918, 0.135290265083313, -0.19984103739261627, -0.09098749607801437, -0.2222490757703781, -0.05938783660531044, 0.015035601332783699, 0.023001432418823242, 0.06287998706102371, 0.08391820639371872, 0.1135755404829979, -0.11780262738466263, -0.05587710440158844, -0.06907927244901657, 0.1582947075366974, 0.0932559221982956, -0.046026699244976044, 0.007819688878953457, -0.07876791059970856, 0.011650938540697098, 0.009845106862485409, 0.17354445159435272, 0.14386390149593353, 0.06749333441257477, 0.12792082130908966, 0.045946165919303894, 0.010932627134025097, -0.007975146174430847, 0.16343793272972107, -0.060155294835567474, -0.02332061156630516, -0.18905965983867645, -0.06619326770305634, 0.09559189528226852, 0.14684145152568817, -0.04546525701880455, 0.07403641194105148, -0.1603337824344635, 0.13249947130680084, -0.10071344673633575, 0.01253603771328926, 0.038740500807762146, 0.03787468001246452, 0.10973494499921799, 0.15819312632083893, -0.054888393729925156, 0.003986918833106756, -0.11665032804012299, -0.14968429505825043, 0.021656854078173637, -0.008182146586477757, -0.09607858210802078, 0.09394325315952301, -0.11346182972192764, -0.14405274391174316, -0.012205327861011028, 0.12552380561828613, 0.12532304227352142, -0.035352978855371475, -0.0920853465795517, -0.1373739093542099, -0.011511703953146935, 0.1199922114610672, -0.05193592980504036, -0.07519408315420151, -0.0242767296731472, 0.011391558684408665, -0.13223016262054443, -0.10146942734718323, 0.15272590517997742, -0.06546348333358765, -0.08772707730531693, -0.03461422026157379, -0.09501546621322632, -0.05108800157904625, 0.07259128987789154, -0.028454432263970375, -0.046934984624385834, -0.0034287257585674524, -0.1671912521123886, 0.17328089475631714, 0.13131624460220337, 0.14132419228553772, -0.10050822049379349, 0.07673607766628265, -0.15702401101589203, 0.03732887655496597, -0.043660473078489304, -0.05773606896400452, 0.11434891819953918, -0.10778757184743881, -0.01827215403318405, -0.011836838908493519, -0.1572055220603943, -0.05252331495285034, -0.09347216784954071, 0.0353967547416687, 0.048525381833314896, 0.1277540922164917, -0.10014980286359787, -0.07017766684293747, -0.06785082817077637, 0.16087166965007782, 0.16185173392295837, -0.07820580899715424, -0.15501238405704498, -0.14034424722194672, -0.08843714743852615, 0.1537550389766693, 0.07179334759712219, 0.15664859116077423, 0.14176258444786072, 0.05905372276902199, -0.0767921656370163, 0.17031298577785492, 0.15555381774902344, 0.07374659925699234, -0.09796798229217529, 0.06785429269075394, 0.01693836972117424, 0.04263933748006821, -0.035131994634866714, 0.04886835068464279, -0.15777544677257538, -0.1488918662071228, 0.08222311735153198, -0.008601026609539986, -0.0704130232334137, 0.124948650598526, -0.02720850147306919, 0.05594981089234352, -0.10293428599834442, 0.054379288107156754, 0.010491450317203999, -0.09179850667715073, -0.0014551820931956172, -0.002233590930700302, 0.09087301790714264, 0.012723514810204506, 0.12918798625469208, 0.049777716398239136, 0.007733973674476147, -0.04697365313768387, -0.12846863269805908, 0.006103553809225559, -0.10420256108045578, 0.01896146684885025, 0.007690101396292448, -0.01720665581524372, -0.028722360730171204, 0.06822510063648224, 0.04128417372703552, -0.043497197329998016, -0.036278657615184784, 0.0880141481757164, 0.13234029710292816, -0.20271150767803192, -0.04948313906788826, -0.04006494954228401, -0.09654655307531357, 0.0791613906621933, -0.022752415388822556, 0.11894748359918594, -0.08321180939674377, -0.02848162315785885, 0.011723875999450684, 0.11028091609477997, 0.06622707843780518, 0.06723787635564804, 0.11923743039369583, 0.14082853496074677, 0.011747829616069794, 0.26022231578826904, 0.15733443200588226, -0.0915721133351326, -0.016369013115763664, -0.01669703610241413, -0.06364934146404266, 0.0824698954820633, 0.06724663078784943, -0.0964248850941658, -0.1878267526626587, 0.15472285449504852, -0.042802996933460236, -0.08777383714914322, 0.02066481113433838, -0.17678940296173096, -0.16439220309257507, -0.14230887591838837, -0.18027491867542267, -0.048571862280368805, -0.0011757089523598552, -0.17422719299793243, -0.13623647391796112, 0.02074858918786049, -0.11020758748054504, 0.26451215147972107, -0.07960095256567001, -0.001299242489039898, 0.10362572968006134, -0.021035948768258095, -0.10949759185314178, -0.010719938203692436, -0.1598501205444336, -0.0670621395111084, 0.0323563851416111, 0.14000175893306732, -0.20057164132595062, -0.07400435209274292, 0.05311325937509537, -0.09928575903177261, -0.0981311947107315, -0.1717521697282791, 0.1424255073070526, 0.10305052995681763, -0.08381208777427673, -0.007972958497703075, 0.21352939307689667, 0.1308363825082779, 0.07635056972503662, 0.15319357812404633, 0.0076331524178385735, -0.08350253105163574, -0.06732864677906036, 0.23256507515907288, 0.02563866786658764, -0.025222154334187508, -0.10267839580774307, 0.017384914681315422, -0.13915716111660004, 0.013066355139017105, 0.02796120196580887, 0.02010882832109928, 0.02662394568324089, -0.05533941090106964, 0.01829725317656994, 0.09232443571090698, -0.001495484379120171, -0.088835209608078, 0.11229795962572098, -0.062223829329013824, 0.062433816492557526, -0.038420792669057846, -0.010055978782474995, -0.025042137131094933, -0.10445079952478409, 0.08350351452827454, -0.04732572287321091, -0.09724481403827667, 0.04163019731640816, 0.021574316546320915, -0.10939040780067444, -0.1552099585533142, 0.09079572558403015, 0.09929768741130829, 0.02931472286581993, 0.03975936397910118, 0.030107488855719566, 0.02904519997537136, 0.016062652692198753, -0.0796789675951004, 0.03368476778268814, 0.16345597803592682, 0.0026212362572550774, -0.052378326654434204, -0.030463211238384247, 0.10892365872859955, 0.19209793210029602, 0.19834215939044952, 0.047900933772325516, 0.054517753422260284, -0.20396655797958374, -0.09243764728307724, -0.07276423275470734, 0.21948811411857605, 0.0011290612164884806, -0.12547004222869873, -0.037352755665779114, -0.05274524167180061, -0.14393681287765503, 0.012378238141536713, 0.020578710362315178, -0.17906427383422852, -0.13495875895023346, 0.055463358759880066, 0.04896489530801773, -0.057073161005973816, -0.07708519697189331, 0.009466197341680527, -0.000984921702183783, -0.14899849891662598, -0.05502751097083092, 0.11214132606983185, 0.07301501929759979, -0.021264169365167618, 0.1046336442232132, -0.10717108100652695, 0.07427679002285004, 0.06843302398920059, 0.0006265400443226099, 0.11945611983537674, 0.10040854662656784, -0.08688975125551224, 0.028797246515750885, 0.08287201821804047, -0.05057806521654129, 0.1707027703523636, -0.01917540840804577, -0.1226971223950386, -0.11108295619487762, -0.16810616850852966, 0.15977968275547028, -0.08997726440429688, -0.1570151448249817, -0.009133757092058659, -0.1567961722612381, -0.13315020501613617, 0.09732741862535477, -0.06427936255931854, 0.11575343459844589, 0.06782407313585281, -0.06941663473844528, -0.002311516320332885, -0.06064224615693092, 0.16726918518543243, 0.19071291387081146, -0.008266011252999306, 0.1666831225156784, -0.12191398441791534, -0.05735623836517334, 0.09351035207509995, -0.08881965279579163, 0.05863426625728607, 0.01333711575716734, 0.010455752722918987, -0.11610931158065796, 0.10335295647382736, -0.06685224920511246, -0.028171002864837646, -0.03771178424358368, 0.14930838346481323, 0.07471776753664017, -0.06092222407460213, -0.07189442962408066, 0.09735973924398422, 0.019676949828863144, 0.08392529934644699, 0.025317352265119553, 0.10139033943414688, -0.10784421861171722, 0.1162281185388565, -0.08394771814346313, -0.06263242661952972, 0.012565328739583492, -0.025439942255616188, -0.0016277374234050512, 0.14622215926647186, -0.0718393474817276, 0.06994425505399704, -0.1369452029466629, 0.032874636352062225, 0.1780427247285843, 0.06969287991523743, 0.1443357616662979, 0.1176099106669426, -0.036937862634658813, 0.017743321135640144, -0.10798324644565582, 0.1381675899028778, 0.08875196427106857, -0.051215700805187225, 0.09690985083580017, -0.008928230963647366, -0.06324965506792068, 0.00017502960690762848, -0.03583883121609688, 0.015077999792993069, -0.043122999370098114, -0.15505096316337585, -0.06310839205980301, -0.014718279242515564, 0.09382806718349457, 0.08837096393108368, -0.07131791114807129, -0.02537931315600872, -0.023082515224814415, -0.08937186002731323, -0.06044195964932442, 0.013672810979187489, 0.008041315712034702, -0.10951928794384003, -0.018999692052602768, -0.10477234423160553, 0.008009390905499458, 0.16731907427310944, -0.027114728465676308, -0.037017907947301865, 0.08491648733615875, 0.03939502313733101, -0.0455290749669075, -0.08515345305204391, -0.00560904061421752, -0.0013147111749276519, 0.12728603184223175, 0.012213997542858124, 0.13280445337295532, -0.054024260491132736, -0.06076013296842575, 0.02358977496623993, 0.08351615071296692, 0.1183837503194809, 0.023200027644634247, 0.018865544348955154, -0.09642060101032257, 0.0566408596932888, -0.11229658126831055, -0.03662971779704094, -0.08396665751934052, -0.12611354887485504, 0.08939210325479507, -0.050668101757764816, 0.09145537763834, 0.09307826310396194, 0.0685858428478241, 0.004679573699831963, -0.024412794038653374, 0.05903439596295357, 0.025670988485217094, 0.062255147844552994, -0.030861323699355125, -0.006392568349838257, -0.003712370293214917, -0.11107096076011658, -0.03550402820110321, -0.10302834212779999, 0.12869705259799957, -0.20963667333126068, -0.023697588592767715, -0.046064600348472595, 0.09839610010385513, -0.2079090029001236, 0.008570733480155468, 0.07631796598434448, 0.15241363644599915, 0.10913179814815521, 0.053700193762779236, 0.004841072950512171, 0.06865561008453369, 0.051438942551612854, -0.18788428604602814, -0.013652648776769638, 0.06427810341119766, 0.010221787728369236, -0.10903158038854599, -0.14954595267772675, 0.08340992778539658, 0.022627215832471848, 0.07398948073387146, -0.08039818704128265, -0.007657115813344717, -0.1711386740207672, -0.03885851427912712, -0.03167081996798515, 0.0041639311239123344, -0.0913158655166626, -0.18563193082809448, 0.043967969715595245, 0.24028103053569794, 0.06305397301912308, 0.16023044288158417, -0.18996678292751312, -0.0026049711741507053, -0.033693548291921616, -0.10149592906236649, -0.00901237316429615, -0.1259131133556366, -0.052089061588048935, 0.12438911944627762, 0.17603659629821777, -0.14867928624153137, 0.12955862283706665, -0.10567857325077057, -0.03387225419282913, -0.04449765756726265, -0.04291629418730736, 0.09205129742622375, 0.1437406986951828, 0.10880573093891144, -0.03671053797006607, 0.10272267460823059, -0.10189568251371384, 0.17970143258571625, 0.10265637934207916, 0.08874940872192383, -0.06202965974807739, -0.09336312115192413, 0.08761683106422424, 0.04991761967539787, 0.09333447366952896, 0.060307081788778305, 0.08508939296007156, -0.035030264407396317, -0.29881569743156433, 0.26980060338974, 0.27206265926361084, -0.5708876848220825, 0.11291521042585373, -0.7026188969612122, -0.3087208569049835, -0.4002305865287781, 0.8364615440368652, -0.843510627746582, -0.6187686324119568, -0.9256071448326111, 0.24011269211769104, -0.7791154384613037, 0.27838030457496643, -0.6123530864715576, -0.11731910705566406, -0.09598642587661743, 0.024092845618724823, 0.22508330643177032, 0.22217240929603577, 0.004966608248651028, -0.24409006536006927, -0.08468776196241379, -0.1019207239151001, -0.04828153923153877, 0.081044040620327, 0.10788790881633759, 0.10299906134605408, 0.12928582727909088, -0.10766530781984329, 0.0011634144466370344, 0.010093611665070057, -0.05056000500917435, 0.013023356907069683, -0.009266046807169914, -0.2533986568450928, 0.1611415594816208, 0.05823052302002907, -0.10702800005674362, 0.09974251687526703, -0.1417330503463745, 0.18069368600845337, 0.28489530086517334, -0.03310652822256088, 0.14410124719142914, 0.08461695164442062, 0.12266076356172562, -0.04122838005423546, -0.19697369635105133, -0.01435396820306778, 0.17480675876140594, 0.028639616444706917, 0.2033749371767044, 0.02624073065817356, 0.09444745630025864, -0.02139616757631302, 0.029319753870368004, -0.24495656788349152, -0.16898466646671295, 0.018400274217128754, 0.09557845443487167, 0.1050526574254036, 0.014505410566926003, 0.1420084685087204, 0.047775860875844955, -0.23366679251194, -0.15795177221298218, -0.2246263176202774, 0.05010880157351494, -0.12171686440706253, -0.06351827085018158, -0.0546862930059433, 0.09208699315786362, 0.10690580308437347, 0.25722429156303406, 0.2457209974527359, -0.12185143679380417, 0.05445316433906555, 0.07552345097064972, 0.14194220304489136, 0.07050924748182297, -0.03318699449300766, -0.2389945238828659, 0.23513394594192505, -0.1716257631778717, -0.034481775015592575, 0.27155011892318726, 0.17464858293533325, 0.041045963764190674, -0.1112111285328865, 0.2749943733215332, -0.20165769755840302, -0.03679780662059784, -0.11351998150348663, -0.17890070378780365, -0.20109891891479492, -0.020952286198735237, -0.2081700712442398, -0.12219392508268356, 0.1227852925658226, -0.22967840731143951, 0.016377637162804604, -0.02893480844795704, 0.08820387721061707, 0.24273227155208588, 0.03036564216017723, -0.10939574986696243, -0.2570742070674896, -0.06504365801811218, 0.03047100268304348, 0.01699242927134037, 0.15239231288433075, -0.26339396834373474, 0.09987207502126694, -0.14594247937202454, 0.040433865040540695, 0.2690683603286743, -0.3229553997516632, -0.22823117673397064, 0.2697499394416809, -0.09136702120304108, -0.29421883821487427, 0.07939893007278442, 0.1233370304107666, -0.11379098147153854, -0.1342146098613739, 0.2260226607322693, 0.14020486176013947, 0.1211814284324646, 0.03535975515842438, 0.07734294980764389, 0.1621018797159195, -0.12212136387825012, -0.04491119459271431, 0.13066056370735168, -0.10223811119794846, 0.2219780683517456, -0.1834440678358078, 0.07013768702745438, -0.19310183823108673, 0.06730660796165466, 0.13787305355072021, 0.003058006754145026, -0.019519858062267303, 0.04763929545879364, -0.1909482330083847, -0.1089528277516365, -0.22389881312847137, -0.1199127808213234, 0.003702030749991536, -0.14846171438694, 0.06063312292098999, 0.00326212658546865, 0.18381543457508087, -0.09257479012012482, -0.020714905112981796, 0.1144866868853569, -0.057403143495321274, 0.27376291155815125, -0.08633080124855042, 0.06499292701482773, -0.04956652224063873, 0.08269394189119339, 0.10532001405954361, -0.16448290646076202, 0.16808690130710602, 0.025836395099759102, -0.07194644212722778, 0.01354782935231924, 0.2021459937095642, 0.24220143258571625, 0.0643581748008728, 0.13299590349197388, 0.13265031576156616, -0.13676640391349792, -0.10585518926382065, -0.21260473132133484, -0.18663057684898376, 0.1952330470085144, -0.008736110292375088, -0.03457281365990639, -0.10617537796497345, -0.1096583753824234, 0.29261839389801025, 0.15993350744247437, -0.28913453221321106, 0.015277853235602379, 0.219607412815094, -0.01948968507349491, -0.03141465410590172, 0.1005760058760643, 0.07717269659042358, 0.28111207485198975, -0.2339574694633484, -0.0643000453710556, -0.1806507706642151, -0.12427884340286255, 0.10385118424892426, 0.17517079412937164, -0.253866046667099, 0.21188971400260925, 0.2633938491344452, -0.06571245938539505, -0.014745933003723621, 0.020265672355890274, 0.07032287120819092, -0.08824560046195984, -0.08880048245191574, -0.2649790644645691, -0.22767764329910278, 0.23389707505702972, -0.040416959673166275, 0.03245336562395096, -0.13316790759563446, 0.12998171150684357, -0.1344730257987976, -0.10985809564590454, -0.21910642087459564, -0.18481115996837616, 0.26755648851394653, -0.2585202157497406, -0.004984329920262098, -0.02626701258122921, 0.10318660736083984, 0.004978015553206205, -0.21413950622081757, 0.27457383275032043, -0.2691320478916168, 0.06788227707147598, -0.024265866726636887, -0.08863365650177002, 0.16735176742076874, 0.2035328447818756, 0.05147938057780266, -0.06851612031459808, 0.23083534836769104, 0.10746786743402481, 0.09366551786661148, -0.02784731611609459, -0.04044291749596596, 0.24790377914905548, 0.08079748600721359, -0.059935372322797775, -0.17372968792915344, -0.17774216830730438, 0.2323821485042572, 0.03644376993179321, -0.10982422530651093, 0.1386607140302658, -0.08803671598434448, 0.08801976591348648, -0.13492155075073242, 0.16697092354297638, 0.2067328691482544, 0.13769643008708954, 0.1985578089952469, -0.20679490268230438, -0.09051147103309631, 0.038554731756448746, -0.22539134323596954, 0.09336160868406296, -0.06401871144771576, 0.1866823136806488, 0.03184926509857178, -0.17540180683135986, 0.30261507630348206, 0.20646780729293823, -0.2516911029815674, 0.33090296387672424, -0.21366029977798462, -0.1576428860425949, -0.09493332356214523, 0.025533895939588547, 0.02986636571586132, -0.005381100345402956, -0.2065671980381012, -0.010335616767406464, 0.151131734251976, 0.17552638053894043, 0.11249600350856781, 0.056010883301496506, 0.06516147404909134, -0.16755780577659607, 0.08303795009851456, -0.24913759529590607, -0.09243523329496384, -0.03643038868904114, 0.03580779582262039, -0.05290772020816803, -0.08778101205825806, 0.015846263617277145, -0.11032886058092117, 0.0121650081127882, -0.016589291393756866, -0.022609367966651917, 0.02207178622484207, 0.045444879680871964, -0.11312801390886307, -0.043626219034194946, 0.15694738924503326, 0.037392329424619675, -0.033675339072942734, 0.1355118751525879, 0.08530054241418839, -0.06039978563785553, -0.04549918696284294, -0.02964950166642666, 0.09956870973110199, 0.047211263328790665, 0.09521129727363586, -0.1425466537475586, -0.11956191062927246, 0.11756901443004608, 0.05549897253513336, 0.09298045188188553, 0.057873837649822235, -0.06849656254053116, -0.12478692084550858, 0.01858873851597309, -0.005733045749366283, -0.10267716646194458, 0.039562348276376724, 0.032519880682229996, -0.07355105131864548, -0.10828448086977005, 0.028950292617082596, -0.13166765868663788, 0.08191149681806564, -0.034600745886564255, 0.1054072305560112, 0.10840801894664764, -0.11921746283769608, 0.1165376752614975, -0.06450141221284866, 0.055142711848020554, 0.007107969839125872, -0.0588669590651989, 0.05058768764138222, -0.061562225222587585, 0.10305788367986679, -0.18660464882850647, 0.20390738546848297, 0.09552501142024994, 0.0890682190656662, 0.014856614172458649, -0.10875316709280014, -0.1291833519935608, 0.08772453665733337, -0.08536531031131744, -0.011556006968021393, -0.11474714428186417, 0.04993126541376114, -0.09044693410396576, 0.10387313365936279, -0.04369846731424332, 0.1285502016544342, -0.13836237788200378, -0.05789956450462341, 0.004509070888161659, 0.11198516935110092, -0.06624583899974823, -0.1795932799577713, 0.02792077325284481, 0.14788059890270233, 0.10252577066421509, 0.2173343002796173, 0.05820424109697342, -0.020669186487793922, 0.015046391636133194, -0.17245808243751526, -0.08962017297744751, 0.049890339374542236, 0.09647123515605927, -0.10626395046710968, 0.06668706983327866, -0.012983455322682858, -0.15338066220283508, 0.0632840171456337, 0.0013440148904919624, 0.1051625981926918, 0.2973942458629608, -0.07602257281541824, -0.0008259995956905186, 0.2008264660835266, 0.006174484267830849, -0.026396237313747406, 0.2260279357433319, 0.06862324476242065, -0.16273409128189087, 0.15385982394218445, -0.004848984535783529, 0.05495704710483551, -0.08145936578512192, -0.020439503714442253, 0.1156264990568161, -0.0388568714261055, -0.07398815453052521, 0.12846632301807404, 0.04779330641031265, 0.11521849781274796, 0.0190159659832716, 0.026806414127349854, 0.16486749053001404, -0.06666547805070877, -0.1300031691789627, 0.107402503490448, 0.027922993525862694, 0.07188999652862549, -0.08549358695745468, -0.009226216934621334, -0.04829481244087219, 0.06704283505678177, -0.1131218671798706, -0.042822375893592834, 0.09025967121124268, -0.040027350187301636, -0.01611558347940445, -0.13047531247138977, 0.11313066631555557, 0.12508435547351837, -0.006303152069449425, 0.0049565136432647705, 0.01841367408633232, -0.016782132908701897, 0.028229618445038795, 0.06839040666818619, -0.38241782784461975, 0.0236998088657856, -0.1415802240371704, -0.2776533365249634, 0.112938292324543, -0.030629796907305717, -0.07722240686416626, 0.14304885268211365, -0.06434540450572968, 0.08975565433502197, -0.05511340871453285, 0.06982560455799103, 0.0822107195854187, -0.15887758135795593, 0.1436312049627304, -0.011106693185865879, -0.0980563759803772, 0.014704118482768536, -0.029620513319969177, -0.046342864632606506, -0.04720015451312065, 0.002674862975254655, 0.12201619893312454, 0.1345902681350708, 0.04561010003089905, -0.16174176335334778, -0.05060252919793129, 0.06855358183383942, 0.10838954150676727, 0.028908537700772285, -0.024941571056842804, 0.04136060178279877, -0.11397050321102142, -0.03811725229024887, -0.113485187292099, 0.05431918427348137, 0.03090806119143963, 0.004481066949665546, 0.22725623846054077, -0.10544051975011826, -0.0029667720664292574, 0.05447692424058914, -0.0765586569905281, -0.058721743524074554, 0.16497750580310822, -0.05625710263848305, 0.0795028880238533, 0.037589069455862045, -0.19738344848155975, 0.15586915612220764, 0.019535452127456665, -0.05099709704518318, 0.07799073308706284, -0.01965995691716671, -0.16257992386817932, -0.01578303426504135, -0.09345594048500061, 0.056256551295518875, 0.11906620860099792, 0.018069131299853325, 0.11348100751638412, -0.007182558532804251, -0.031274568289518356, 0.17732146382331848, -0.10582968592643738, -0.054289866238832474, 0.02177046798169613, -0.04378794878721237, 0.03710814192891121, 0.05078059434890747, -0.01133719552308321, -0.17164234817028046, -0.18367896974086761, 0.1318858116865158, 0.002738707233220339, -0.12444312870502472, 0.04886428639292717, -0.005658199544996023, -0.052667830139398575, 0.11662562191486359, 0.11209504306316376, 0.0870247483253479, 0.05007152631878853, -0.11223408579826355, -0.056968726217746735, 0.04758608713746071, -0.05582936108112335, 0.1825059950351715, -0.19414612650871277, -0.10471858084201813, 0.08141541481018066, 0.0340317040681839, -0.09352900087833405, -0.07817624509334564, 0.13750623166561127, -0.027789372950792313, 0.09279009699821472, 0.10994341224431992, 0.02013084664940834, 0.10957338660955429, -0.08386433869600296, 0.10757196694612503, -0.029241779819130898, -0.06567386537790298, -0.044892191886901855, -0.07342009991407394, -0.01740843616425991, -0.11240685731172562, -0.09994326531887054, -0.05956254154443741, -0.07325395196676254, -0.13084444403648376, 0.1055685430765152, 0.012989610433578491, -0.07474832981824875, 0.02238193340599537, -0.09292566776275635, -0.09681224822998047, 0.048453740775585175, -0.16851244866847992, 0.1376522332429886, 0.05924714356660843, -0.06771308928728104, -0.12761689722537994, 0.09206424653530121, 0.04900766536593437, -0.0006365672452375293, -0.09981832653284073, -0.026054594665765762, -0.01269053015857935, 0.01980028674006462, -0.031337566673755646, 0.05959596112370491, 0.01364426501095295, 0.1344922035932541, 0.0996042788028717, 0.05638079717755318, 0.06254783272743225, -0.04634207859635353, -0.04866291955113411, -0.08702172338962555, 0.030160054564476013, 0.053707465529441833, 0.07980652898550034, -0.16399267315864563, -0.04537467285990715, 0.30038878321647644, -0.17883063852787018, 0.05592561513185501, -0.1026415303349495, -0.0732637345790863, 0.03125495836138725, 0.08250520378351212, -0.02029384858906269, -0.01688356138765812, 0.08242370933294296, -0.0760452002286911, -0.04657931253314018, -0.030991772189736366, 0.12574473023414612, 0.05839799717068672, 0.026959367096424103, -0.0221906416118145, 0.06530674546957016, -0.033283911645412445, 0.13927723467350006, -0.012337644584476948, 0.01202824991196394, 0.08434390276670456, 0.023760352283716202, 0.13434216380119324, 0.10426993668079376, -0.1312040388584137, -0.15307776629924774, -0.05354548245668411, 0.16851766407489777, -0.038901980966329575, 0.16202664375305176, -0.11764640361070633, -0.14061953127384186, 0.05960211157798767, -0.03248167410492897, -0.037267085164785385, -0.12084711343050003, -0.0582745224237442, -0.16516633331775665, -0.14792853593826294, 0.10796798020601273, -0.03440351411700249, -0.09331171214580536, 0.046371787786483765, -0.11208997666835785, -0.051050323992967606, 0.052813347429037094, 0.12441499531269073, -0.15944427251815796, -0.04101427271962166, -0.06298559159040451, 0.057875774800777435, -0.14184895157814026, -0.04088619723916054, 0.011476375162601471, 0.1342529058456421, -0.17791888117790222, 0.15500034391880035, -0.002741865813732147, -0.19398759305477142, 0.038130249828100204, 0.08661595731973648, -0.12385577708482742, -0.0007843465427868068, -0.10271770507097244, 0.1276024878025055, 0.04362703487277031, 0.039506249129772186, -0.11138080060482025, -0.035197824239730835, 0.11232496798038483, -0.004148739390075207, 0.012929204851388931, -0.05813569575548172, -0.06484309583902359, 0.13813404738903046, -0.08869998157024384, -0.007044538389891386, 0.03866802901029587, -0.14012931287288666, -0.016652371734380722, -0.11551185697317123, -0.017810286954045296, -0.03560629487037659, 0.11261723190546036, -0.20048442482948303, -0.08525271713733673, 0.08962713181972504, 0.16702628135681152, -0.21001377701759338, -0.038098130375146866, 0.07942576706409454, -0.014595418237149715, 0.06020131707191467, -0.11421627551317215, -0.26072385907173157, 0.02515723928809166, -0.04022901505231857, -0.08996785432100296, -0.100307397544384, 0.045495714992284775, 0.005232405848801136, -0.1311696171760559, 0.020182015374302864, -0.009851678274571896, 0.11655531823635101, -0.07573716342449188, -0.005542335566133261, 0.1973399966955185, 0.10891713201999664, -0.11784663051366806, -0.01197864580899477, 0.010663449764251709, -0.0285340566188097, -0.18383416533470154, -0.09921181201934814, 0.04827289655804634, -0.1355779618024826, -0.035686690360307693, 0.056523397564888, -0.1661580502986908, -0.005926959216594696, 0.06641030311584473, -0.0068595935590565205, 0.03284318745136261, 0.026483478024601936, 0.012591132894158363, 0.0894184336066246, -0.009204411879181862, 0.027112845331430435, -0.13801497220993042, 0.05569233372807503, 0.21712082624435425, -0.05958901718258858, -0.15790103375911713, 0.16294938325881958, -0.008556324057281017, -0.0018927747150883079, -0.0003619722556322813, 0.10437273979187012, 0.19734744727611542, 0.23798297345638275, -0.07612743228673935, 0.15832006931304932, 0.1386788934469223, -0.017652591690421104, -0.05955727398395538, -0.05638664960861206, -0.18867868185043335, 0.13879519701004028, 0.13086609542369843, 0.00458733132109046, 0.10865075141191483, 0.00020146560564171523, 0.0245902668684721, -0.03808760270476341, -0.08219217509031296, -0.1887219101190567, -0.02792491763830185, 0.01934102736413479, 0.08949524164199829, -0.15199770033359528, 0.041585907340049744, -0.01845918968319893, -0.0796821340918541, 0.07493137568235397, -0.19113917648792267, -0.0309155136346817, -0.10616631805896759, -0.03193673491477966, -0.011830833740532398, -0.20804372429847717, 0.024359282106161118, 0.038295116275548935, -0.054175522178411484, 0.10575411468744278, 0.15985286235809326, 0.034633297473192215, -0.08979276567697525, -0.15808722376823425, 0.026372035965323448, -0.12101919949054718, 0.06315987557172775, -0.006969160865992308, -0.1551109105348587, 0.021101996302604675, -0.1611555516719818, -0.09274452179670334, -0.0971134752035141, -0.03338402137160301, -0.07794750481843948, 0.019514765590429306, -0.13163739442825317, -0.16556236147880554, -0.06667672097682953, -0.09264132380485535, -0.07915151864290237, 0.1321285367012024, 0.13435177505016327, 0.0925036072731018, 0.01270272582769394, -0.014217134565114975, 0.07191883772611618, 0.02746017463505268, -0.019249536097049713, 0.13089659810066223, 0.1274271458387375, -0.10877281427383423, 0.07017549127340317, -0.0005442420369945467, 0.06546813994646072, -0.09843947738409042, 0.12845969200134277, 0.2138747274875641, -0.13454140722751617, 0.07762398570775986, 0.19471441209316254, -0.014107758179306984, -0.0023356755264103413, 0.026872102171182632, 0.041465528309345245, -0.04444960877299309, 0.0636615976691246, 0.013087032362818718, 0.07249714434146881, -0.05156457796692848, 0.08453591912984848, 0.028552724048495293, -0.24013260006904602, 0.17343927919864655, 0.08872796595096588, -0.04137106612324715, -0.020112665370106697, 0.12541714310646057, -0.18800221383571625, -0.05694018304347992, -0.12425795197486877, -0.044533621519804, -0.06966261565685272, -0.038889504969120026, -0.22566430270671844, 0.033443134278059006, -0.03390035033226013, -0.12183528393507004, 0.017293352633714676, 0.014296970330178738, -0.07759315520524979, -0.0158532802015543, 0.06544758379459381, -0.0035417976323515177, 0.13257786631584167, -0.1549566090106964, 0.003332872409373522, 0.08209730684757233, 0.05333101004362106, -0.01946767047047615, 0.037633731961250305, -0.09118268638849258, -0.10483994334936142, -0.03564679995179176, 0.03405085578560829, 0.1518702507019043, 0.06864407658576965, 0.14975126087665558, -0.019120560958981514, -0.1425091028213501, -0.14906489849090576, 0.04973107948899269, -0.09648491442203522, -0.12666822969913483, -0.05898826941847801, -0.14872987568378448, -0.04434247687458992, -0.0986582487821579, -0.057362012565135956, -0.030021611601114273, -0.1275288164615631, 0.1605771780014038, 0.005962724797427654, -0.016659477725625038, -0.02321210503578186, -0.10496848076581955, -0.12839394807815552, 0.12685367465019226, -0.10963630676269531, -0.14903895556926727, 0.2754334807395935, -0.10593640804290771, -0.0890585333108902, -0.09549868851900101, -0.09473879635334015, -0.11258342117071152, 0.1005840003490448, 0.14813168346881866, 0.034306563436985016, -0.1950901299715042, -0.011338217183947563, -0.16577480733394623, -0.00014531805936712772, -0.0038110087625682354, -0.08049717545509338, -0.07017823308706284, 0.04398820176720619, 0.07115176320075989, 0.05048775300383568, -0.0623621940612793, 0.03721075505018234, 0.005280597601085901, -0.08067528158426285, 0.20880433917045593, -0.12244342267513275, 0.03505180403590202, -0.029740359634160995, 0.021586602553725243, 0.08211889117956161, -0.180417999625206, 0.06063922867178917, -0.16736888885498047, 0.06614754348993301, -0.0056339954026043415, 0.12446792423725128, 0.11559790372848511, -0.01004856638610363, 0.08054972440004349, -0.1355658620595932, 0.22931388020515442, -0.03245941177010536, 0.035325631499290466, -0.11578138172626495, 0.13483202457427979, 0.07995689660310745, 0.04017363861203194, -0.02208421751856804, -0.027240697294473648, -0.05498996376991272, 0.10801023989915848, 0.012749731540679932, 0.17959977686405182, 0.056501470506191254, -0.03611506149172783, -0.07277126610279083, 0.18025562167167664, -0.03756476938724518, -0.09015674144029617, 0.1093418151140213, -0.025998780503869057, -0.16636666655540466, -0.08928986638784409, -0.12110026180744171, 0.13520127534866333, -0.11592992395162582, 0.09676956385374069, 0.12614752352237701, -0.10409799218177795, 0.004021352156996727, -0.10130469501018524, 0.03284721449017525, 0.044759560376405716, -0.018942322582006454, -0.00751114496961236, 0.10080526024103165, -0.044912997633218765, 0.03745613619685173, -0.035135090351104736, -0.010541203431785107, -0.03116070106625557, -0.027833813801407814, 0.13030795753002167, 0.06706789135932922, -0.015088262036442757, -0.12321793287992477, -0.04649357870221138, -0.08882258087396622, 0.09941601008176804, -0.02210482954978943, 0.05042491480708122, -0.051556508988142014, 0.10083208233118057, 0.08273904025554657, -0.10574429482221603, -0.07223964482545853, -0.21421904861927032, 0.02892918698489666, -0.0440719909965992, -0.17777691781520844, 0.05024288222193718, 0.005309653002768755, 0.09881047159433365, 0.1093241348862648, 0.0514197051525116, 0.038165125995874405, 0.09192050993442535, -0.028120016679167747, -0.03247271850705147, 0.10032779723405838, -0.13214799761772156, -0.1314830332994461, 0.06188981607556343, -0.046649690717458725, -0.07337619364261627, -0.158772274851799, 0.10598556697368622, 0.0035465622786432505, -0.1505291759967804, -0.030937064439058304, 0.035849589854478836, -0.06852881610393524, 0.0351511612534523, 0.014245838858187199, -0.011906513012945652, 0.05403303727507591, -0.09431930631399155, 0.12931951880455017, 0.12372766435146332, 0.026116803288459778, 0.00923969130963087, -0.07626023143529892, 0.01111798919737339, 0.10849512368440628, -0.052124567329883575, 0.12050676345825195, -0.06794257462024689, -0.07638441026210785, -0.09434216469526291, -0.023636257275938988, -0.09015805274248123, -0.12376555800437927, 0.11041795462369919, -0.006170444656163454, -0.0964721143245697, 0.05231418088078499, 0.042056869715452194, 0.16910669207572937, 0.015361216850578785, -0.1502729207277298, 0.01101283822208643, 0.05311444774270058, -0.0930330827832222, -0.030217809602618217, 0.20883335173130035, -0.08656072616577148, 0.13211590051651, 0.14668764173984528, -0.1719796508550644, 0.09815343469381332, 0.07358217239379883, 0.01129085011780262, 0.08034826815128326, 0.004443193785846233, 0.13667809963226318, -0.07485240697860718, -0.07633370906114578, 0.054471734911203384, -0.07315918803215027, 0.13626477122306824, 0.07649989426136017, 0.018526000902056694, 0.09206228703260422, 0.0017420952208340168, 0.037106703966856, 0.009456838481128216, -0.06822173297405243, -0.023974664509296417, -0.04833398386836052, -0.07353498786687851, -0.1389419138431549, 0.05667058378458023, -0.14872778952121735, 0.24009668827056885, 0.011568684130907059, -0.16361801326274872, 0.16438627243041992, -0.07025105506181717, -0.06458168476819992, 0.11695727705955505, -0.01934574358165264, 0.13840073347091675, 0.1868792474269867, -0.10529718548059464, -0.15046602487564087, 0.18121352791786194, 0.11284656822681427, 0.09526275098323822, 0.02562566101551056, -0.014772518537938595, -0.1359347254037857, 0.09228335320949554, 0.0029365213122218847, -0.0893220454454422, -0.05114595592021942, 0.14175157248973846, 0.06748150289058685, 0.06291168183088303, 0.04559345170855522, -0.08878425508737564, 0.05544264614582062, 0.0025051473639905453, 0.06017237529158592, -0.25294777750968933, -0.46627944707870483, 0.8101907968521118, 0.3327728807926178, -0.4196853041648865, 0.09786929190158844, -0.20350311696529388, -0.04513828083872795, 0.5088343024253845, -0.7338809370994568, 0.9041870832443237, 0.6031010150909424, 0.016522163525223732, -0.42134302854537964, 0.16272734105587006, -0.6699860095977783, 0.2203042358160019, -0.20065221190452576, -0.027684908360242844, -0.36017659306526184, 0.1797405332326889, 0.10070143640041351, 0.23799929022789001, 0.10656309872865677, 0.197715625166893, 0.09950876235961914, 0.09275934100151062, 0.2271524965763092, -0.30532121658325195, 0.035852059721946716, -0.06402332335710526, -0.03392782434821129, 0.20066645741462708, -0.0015505782794207335, 0.018649127334356308, 0.08869656175374985, 0.20025938749313354, 0.12178461253643036, -0.03883005306124687, -0.24531596899032593, -0.26166385412216187, 0.07950366288423538, -0.023947499692440033, -0.15233591198921204, 0.1389634758234024, 0.2315375953912735, 0.15565450489521027, -0.029677076265215874, 0.07663784176111221, -0.1577223688364029, 0.14130669832229614, -0.08110310137271881, 0.008905977010726929, -0.10855891555547714, -0.025089913979172707, -0.2621924877166748, -0.09483712911605835, 0.02597111091017723, -0.09757853299379349, 0.1874222755432129, 0.1445695161819458, -0.1478499323129654, -0.016965636983513832, 0.002483358606696129, 0.28316667675971985, -0.053981516510248184, 0.06684859842061996, -0.0844440832734108, -0.040157850831747055, 0.09385542571544647, -0.20741130411624908, 0.24820645153522491, 0.24707277119159698, -0.06032843515276909, 0.07263968139886856, 0.26839709281921387, -0.007737303152680397, 0.1268370896577835, 0.1182139441370964, -0.05291597172617912, 0.059006236493587494, -0.14622478187084198, 0.2918342053890228, -0.08575931191444397, 0.08874901384115219, -0.09335693717002869, 0.13936713337898254, -0.04485001042485237, 0.06832268834114075, -0.09590140730142593, -0.09536848962306976, 0.07473007589578629, -0.07980068773031235, -0.2089061439037323, 0.1358673870563507, -0.16488581895828247, -0.06329453736543655, -0.10721280425786972, 0.06446525454521179, -0.11307923495769501, -0.06481029093265533, -0.061656784266233444, 0.2263786345720291, 0.04310039058327675, -0.13218975067138672, -0.17559677362442017, 0.021972687914967537, -0.020486794412136078, 0.01874871738255024, 0.14660845696926117, 0.23420342803001404, 0.08117497712373734, 0.1185549721121788, 0.0870535671710968, -0.12246264517307281, 0.028019171208143234, 0.1491696834564209, -0.17854642868041992, 0.06283687055110931, -0.0796477422118187, -0.13795438408851624, 0.13885103166103363, 0.15895718336105347, -0.1194533258676529, 0.043285686522722244, 0.0871623307466507, 0.10790193825960159, 0.1296655386686325, 0.2358560860157013, 0.15992437303066254, -0.17406035959720612, -0.09801823645830154, 0.15042753517627716, -0.15317276120185852, 0.06958204507827759, -0.12132758647203445, 0.0999409481883049, 0.10678292065858841, 0.06946110725402832, 0.17013660073280334, -0.05893496796488762, 0.08448507636785507, 0.07649002224206924, -0.054769884794950485, -0.20661109685897827, 0.3077907860279083, -0.1040680855512619, 0.20868149399757385, 0.10407905280590057, 0.010812480002641678, -0.2573879361152649, 0.028115278109908104, -0.1637689471244812, 0.09394002705812454, -0.09447485953569412, 0.11760766059160233, -0.19795238971710205, -0.0209067203104496, 0.01067524403333664, -0.01679140143096447, 0.22238609194755554, -0.13351067900657654, -0.1689838171005249, 0.11469198763370514, 0.12476737797260284, 0.11510248482227325, -0.11775553226470947, -0.16017712652683258, -0.0690319612622261, -0.0004150583117734641, 0.08648143708705902, -0.12525798380374908, -0.04629941284656525, -0.07966931164264679, 0.24406798183918, -0.07053947448730469, 0.2887187898159027, -0.18346655368804932, -0.1786538064479828, -0.21632449328899384, 0.13881279528141022, -0.16400645673274994, 0.1205718070268631, -0.02737605944275856, 0.2779434323310852, 0.036224644631147385, -0.24985723197460175, 0.09293704479932785, -0.014789036475121975, -0.21252082288265228, 0.07529943436384201, 0.24508921802043915, 0.08664976060390472, 0.019136980175971985, -0.10859265178442001, 0.04364833980798721, -0.053860507905483246, 0.11547742038965225, 0.219320148229599, 0.10212470591068268, -0.12452835589647293, -0.1864512413740158, -0.1770201325416565, 0.2603248059749603, -0.21749648451805115, -0.2010476440191269, 0.008612029254436493, 0.10112673789262772, -0.25223761796951294, -0.20824310183525085, -0.036139920353889465, -0.023069197311997414, 0.1116567999124527, 0.12344981729984283, -0.22187906503677368, -0.20992755889892578, 0.12253683060407639, -0.037950608879327774, -0.11141058057546616, 0.0010732525261119008, -0.018531469628214836, 0.14662079513072968, 0.05197979882359505, -0.14633044600486755, -0.19324153661727905, 0.15958674252033234, -0.21183465421199799, -0.06354477256536484, 0.0277554951608181, -0.14551135897636414, 0.12265771627426147, -0.12439800798892975, 0.015338554047048092, 0.03737487643957138, 0.09144353121519089, -0.247380331158638, 0.0033731930889189243, 0.15958915650844574, -0.1513596922159195, 0.07114425301551819, -0.01619972102344036, 0.25493887066841125, -0.01863495074212551, 0.05324837192893028, -0.09679096937179565, -0.012833825312554836, 0.03407313674688339, -0.25445640087127686, 0.10417617112398148, 0.15982502698898315, 0.14452876150608063, 0.07658392190933228, -0.004720096942037344, 0.04709000140428543, -0.0016319018322974443, -0.2532218098640442, -0.10019533336162567, -0.07234132289886475, -0.06825654208660126, -0.2764049768447876, -0.13802087306976318, -0.09123653918504715, -0.03489040955901146, -0.1093490719795227, 0.0705646425485611, 0.14472323656082153, 0.20110592246055603, 0.1716885268688202, -0.23356211185455322, -0.11754396557807922, -0.10888414829969406, 0.09163149446249008, 0.08187196403741837, 0.06168460100889206, 0.12924043834209442, 0.17871522903442383, -0.12852534651756287, 0.19255763292312622, 0.1648794263601303, 0.03860711678862572, -0.2082851082086563, -0.12444686889648438, 0.061519745737314224, 0.09776677936315536, 0.1894042193889618, 0.12033196538686752, 0.07746002823114395, 0.01224447600543499, -0.07150183618068695, -0.10611787438392639, -0.10283232480287552, 0.0009782339911907911, 0.024346590042114258, 0.07346311956644058, 0.03171849995851517, -0.04169466719031334, -0.07300067692995071, -0.03160569816827774, 0.16007119417190552, 0.015068518929183483, 0.11444295197725296, -0.07332898676395416, -0.025326648727059364, 0.05399785935878754, -0.07765579223632812, 0.0881948173046112, -0.016565991565585136, -0.1450825035572052, -0.13326016068458557, -0.25196874141693115, -0.03957920894026756, 0.06740106642246246, 0.011133682914078236, -0.10551894456148148, -0.1112181693315506, 0.011876438744366169, 0.06267258524894714, 0.03095151297748089, -0.12274084985256195, -0.017618099227547646, 0.09715418517589569, 0.06847072392702103, -0.07906796783208847, -0.21223551034927368, -0.17382316291332245, -0.007939987815916538, -0.15153008699417114, 0.011735140345990658, -0.0029886115808039904, -0.18917295336723328, -0.09949421137571335, -0.200893834233284, -0.13633263111114502, 0.04454014077782631, -0.088799849152565, -0.053632281720638275, -0.03813372179865837, 0.1935592144727707, 0.041879475116729736, 0.17645958065986633, -0.013931788504123688, 0.004091773647814989, 0.09530352801084518, -0.06019184738397598, 0.0264873243868351, -0.04042252153158188, 0.13665136694908142, 0.11280737072229385, -0.039381422102451324, -0.001639143330976367, 0.1400715559720993, 0.007642471697181463, -0.1416691541671753, 0.04868125170469284, -0.10313374549150467, 0.15298494696617126, 0.0010006135562434793, -0.06127765774726868, -0.10797880589962006, -0.05514218658208847, 0.0786072388291359, 0.11236949265003204, -0.15975356101989746, -0.056537579745054245, 0.12564387917518616, 0.19983163475990295, 0.04918263852596283, 0.14947746694087982, 0.005397918168455362, 0.10631103813648224, -0.01442768331617117, -0.05285079404711723, 0.052677810192108154, 0.07477114349603653, 0.006949080619961023, -0.059426479041576385, 0.11815045773983002, -0.20182587206363678, 0.08772460371255875, 0.13281622529029846, 0.04627459868788719, -0.029629752039909363, 0.0648682489991188, -0.04953853785991669, -0.20295068621635437, -0.1780402958393097, 0.05287934094667435, 0.09153253585100174, -0.004990663845092058, -0.15602028369903564, -0.1088651493191719, -0.04142136871814728, 0.0128693338483572, -0.010266629047691822, 0.0731959342956543, -0.10841061919927597, 0.09854840487241745, -0.025833528488874435, 0.019416987895965576, -0.24272075295448303, -0.15262873470783234, 0.04077848419547081, -0.02705753594636917, -0.012003391981124878, -0.17866133153438568, -0.11115869879722595, -0.07345588505268097, 0.11494018882513046, 0.03256085887551308, 0.0668511763215065, 0.02341345138847828, -0.0226391963660717, -0.058100804686546326, 0.11920196563005447, 0.05085652694106102, 0.026554729789495468, -0.13675138354301453, -0.156348317861557, -0.12333950400352478, 0.027084706351161003, -0.008662719279527664, 0.01598002016544342, -0.12075472623109818, -0.014201870188117027, -0.008837567642331123, -0.12653213739395142, 0.0112493596971035, -0.15538080036640167, -0.020467659458518028, -0.11659341305494308, -0.0024376455694437027, 0.012487289495766163, -0.11734277009963989, 0.2575658857822418, 0.1435089111328125, 0.01618329994380474, 0.042292386293411255, 0.12539152801036835, 0.15960587561130524, 0.037123218178749084, -0.0977097824215889, 0.08373423665761948, 0.12931711971759796, -0.053005121648311615, 0.02868412621319294, 0.10785406082868576, -0.044827595353126526, -0.11323454231023788, -0.12391043454408646, 0.10959130525588989, 0.10939684510231018, -0.025935644283890724, 0.06163197383284569, -0.0439537838101387, -0.021029293537139893, 0.1761150360107422, 0.09891673177480698, -0.14432504773139954, -0.19240431487560272, -0.2102053463459015, 0.014334078878164291, 0.16092219948768616, -0.0029634968377649784, 0.1468825787305832, -0.05713430419564247, -0.05978867784142494, 0.1955110728740692, 0.1727377325296402, 0.06018207222223282, 0.14095628261566162, -0.1676502674818039, 0.13114583492279053, 0.07899796217679977, -0.18704313039779663, -0.08926284313201904, 0.024796733632683754, -0.12194246053695679, -0.06791412085294724, 0.04882942885160446, -0.12583404779434204, 0.2226598858833313, -0.09455279260873795, -0.12485872954130173, 0.11101377010345459, 0.016556721180677414, -0.02987661585211754, -0.10468342155218124, 0.11875446140766144, 0.005874367896467447, 0.05042412504553795, -0.09013225138187408, 0.12680037319660187, 0.13157321512699127, -0.10328469425439835, -0.1253897100687027, -0.02463647909462452, 0.12075764685869217, 0.03236481547355652, -0.022599346935749054, -0.050600022077560425, 0.019363438710570335, 0.20689409971237183, 0.09922178089618683, -0.10302640497684479, -0.20059259235858917, 0.11994203180074692, -0.013697845861315727, -0.04640578851103783, -0.0572233609855175, -0.06223283335566521, 0.013030859641730785, 0.03397288918495178, 0.01643902063369751, -0.01578546315431595, -0.09503839910030365, -0.09348158538341522, -0.17572735249996185, 0.01980229653418064, 0.03558148071169853, -0.24505679309368134, -0.08850621432065964, 0.006674288772046566, -0.12447286397218704, -0.047298941761255264, 0.007163652218878269, 0.02131541445851326, -0.08650178462266922, 0.04660895839333534, 0.13468784093856812, 0.06184140965342522, -0.013402394019067287, -0.04090198129415512, -0.03889439254999161, -0.042747363448143005, -0.05030065402388573, 0.1045747622847557, 0.18438409268856049, -0.13993409276008606, -0.004528663121163845, -0.08940909057855606, 0.20171140134334564, -0.11455708742141724, -0.17532992362976074, -0.016026301309466362, -0.11215602606534958, -0.03294763341546059, 0.02773643657565117, 0.05032515525817871, -0.0163540318608284, 0.11952924728393555, -0.03077114000916481, -0.14031565189361572, -0.23714524507522583, 0.04121088981628418, -0.02979305200278759, 0.05709981173276901, 0.07196811586618423, -0.10275938361883163, -0.03620202839374542, -0.05821828916668892, -0.05295118689537048, 0.09559372067451477, -0.0015503247268497944, 0.08168140798807144, -0.07456711679697037, -0.030816134065389633, -0.053252048790454865, -0.11193908751010895, -0.06190942972898483, 0.0008662357577122748, -0.142024964094162, -0.009806969203054905, -0.07261990010738373, -0.04486870765686035, 0.008187638595700264, 0.02995894104242325, -0.07207268476486206, -0.19697771966457367, -0.25400376319885254, -0.07843586057424545, -0.02065342292189598, -0.02635282650589943, -0.025822961702942848, 0.0589718297123909, -0.05108438432216644, -0.08646634966135025, -0.11025501787662506, -0.24668531119823456, 0.0003654446918517351, 0.115195132791996, 0.05077570676803589, -0.17121104896068573, -0.11930829286575317, 0.09805354475975037, -0.18710529804229736, -0.16621434688568115, -0.10787788033485413, 0.09169436246156693, -0.0482596717774868, -0.027298379689455032, -0.03775562718510628, 0.09090272337198257, -0.07918623089790344, 0.008503876626491547, 0.06868979334831238, 0.1655467450618744, 0.045709311962127686, -0.10681980848312378, -0.06750691682100296, -0.0297803096473217, -0.24548858404159546, -0.22809335589408875, 0.09762086719274521, -0.15862374007701874, -0.200767382979393, -0.09861265867948532, -0.004168748389929533, -0.22361472249031067, -0.06914123147726059, 0.10176176577806473, 0.02647324651479721, 0.056032828986644745, -0.04527406767010689, -0.15369902551174164, -0.10045691579580307, 0.0017895227065309882, 0.040283456444740295, 0.10695289820432663, 0.00393276521936059, 0.11389245092868805, -0.10819346457719803, -0.12416546046733856, 0.09282922744750977, -0.11002495884895325, 0.1369205117225647, -0.011216114275157452, -0.14523343741893768, 0.1162528395652771, -0.014566423371434212, -0.08656367659568787, -0.09903861582279205, -0.06486005336046219, 0.02800234593451023, -0.12058182805776596, 0.08607595413923264, -0.0640893504023552, 0.06666464358568192, 0.021334635093808174, 0.06137298047542572, -0.031442802399396896, -0.02870791405439377, -0.054185979068279266, -0.0649237185716629, 0.09033636003732681, -0.12930895388126373, -0.0780235156416893, -0.16329820454120636, -0.0032706023193895817, -0.0026461316738277674, 0.18638430535793304, 0.12125713378190994, 0.03406885266304016, 0.06456717848777771, 0.08344516903162003, -0.16252674162387848, -0.09905114769935608, -0.004559615161269903, -0.14055059850215912, -0.03714172914624214, 0.018527116626501083, 0.006426461972296238, 0.01235699187964201, -0.08008945733308792, 0.18488308787345886, 0.20419923961162567, 0.12289483845233917, 0.015708211809396744, 0.11976053565740585, 0.055370625108480453, -0.07700406759977341, 0.021168945357203484, -0.05733845755457878, -0.0057931928895413876, -0.05631474032998085, -0.1901232749223709, -0.02714703045785427, 0.038235895335674286, -0.08677378296852112, 0.07407290488481522, 0.018385838717222214, -0.025567343458533287, -0.064572773873806, -0.08988004922866821, -0.08274700492620468, -0.11919569969177246, -0.09717065095901489, 0.03540768474340439, -0.009199339896440506, -0.12920160591602325, 0.02620839886367321, 0.0991503894329071, -0.07575736194849014, 0.12656912207603455, -0.05501752719283104, -0.06889855116605759, 0.13015802204608917, 0.07302896678447723, -0.049426883459091187, 0.21566562354564667, 0.027344586327672005, -0.11672855913639069, -0.002862365683540702, 0.14936017990112305, -0.04312906041741371, 0.09677039086818695, 0.1302536129951477, -0.05063234269618988, 0.03453150764107704, -0.024792971089482307, 0.13772082328796387, -0.22465358674526215, 0.1004665344953537, 0.12560634315013885, 0.08369863033294678, -0.11892834305763245, -0.062129195779561996, 0.12031447142362595, 0.016780968755483627, -0.045544352382421494, 0.16931480169296265, -0.0224978756159544, -0.02595032937824726, 0.03913704678416252, 0.07761704176664352, 0.18344883620738983, -0.14843660593032837, 0.00010719735291786492, -0.0415983609855175, -0.10652997344732285, -0.16438297927379608, 0.057655561715364456, -0.15115518867969513, -0.009960743598639965, 0.09776622802019119, 0.1352820098400116, 0.05138608440756798, -0.03866781294345856, -0.2164018601179123, -0.00018231697322335094, 0.02100054733455181, -0.08592244237661362, 0.16224603354930878, -0.028019221499562263, -0.12133907526731491, -0.10047628730535507, -0.01448503602296114, 0.11503177881240845, -0.05372650921344757, -0.1399976909160614, 0.005937802605330944, 0.13058023154735565, -0.10407742112874985, 0.10545648634433746, 0.07574236392974854, -0.13302072882652283, 0.10559265315532684, -0.02324507385492325, 0.12833759188652039, 0.014449261128902435, -0.13343191146850586, -0.12698830664157867, 0.028185129165649414, -0.1452050656080246, 0.25504744052886963, -0.10321332514286041, -0.07415779680013657, 0.06443420797586441, 0.15607528388500214, 0.04382992535829544, -0.23739594221115112, -0.14333443343639374, -0.11097988486289978, -0.009660505689680576, 0.04412839934229851, 0.06854920089244843, 0.12326173484325409, 0.15185077488422394, 0.13901744782924652, -0.06328366696834564, -0.11287155747413635, -0.0017139037372544408, 0.12993375957012177, 0.024624496698379517, 0.02830318734049797, -0.00304387416690588, -0.05786531791090965, 0.08543841540813446, 0.13790848851203918, 0.14956285059452057, 0.17723442614078522, -0.20860199630260468, -0.16180792450904846, -0.02134670875966549, -0.06226595863699913, 0.10505793988704681, -0.10126339644193649, 0.003152215387672186, 0.08966729044914246, -0.047057684510946274, -0.005189282353967428, -0.10113217681646347, -0.07828764617443085, 0.19213242828845978, -0.030917471274733543, -0.05489275977015495, 0.019157564267516136, -0.2670056223869324, -0.08519940078258514, -0.1394520103931427, 0.0266629196703434, 0.049168165773153305, -0.1288134753704071, -0.039947379380464554, -0.00036503493902273476, 0.07263100147247314, -0.09206897765398026, -0.06585833430290222, -0.04590088501572609, -0.12279293686151505, -0.11230704188346863, 0.12345165759325027, -0.029574468731880188, -0.14169162511825562, -0.03985661268234253, -0.024263586848974228, -0.09860844910144806, -0.20239156484603882, 0.04220801964402199, -0.03942881152033806, 0.14087076485157013, -0.04891360551118851, -0.03361666202545166, 0.02653360925614834, -0.14595456421375275, 0.07250196486711502, 0.12602435052394867, 0.1190074011683464, -0.08637173473834991, 0.046152353286743164, 0.03493061289191246, -0.08303875476121902, 0.07206874340772629, 0.05851013585925102, 0.10294754803180695, -0.1940472275018692, 0.15696433186531067, -0.028150906786322594, 0.04238443821668625, -0.1185322105884552, -0.15313628315925598, -0.01686568185687065, 0.0767006054520607, -0.07799622416496277, 0.16351638734340668, -0.03932825103402138, 0.07319774478673935, -0.08288343250751495, -0.012616373598575592, -0.1504921168088913, -0.18719689548015594, 0.13750261068344116, 0.01260516420006752, -0.04988392814993858, -0.17374762892723083, 0.0255989208817482, -0.14978203177452087, -0.044825371354818344, 0.050150442868471146, -0.1277066469192505, 0.0616539865732193, -0.08576416969299316, -0.14430861175060272, -0.09683236479759216, 0.09824846684932709, -0.07222029566764832, 0.10240344703197479, 0.006213684566318989, 0.09173129498958588, -0.09046883881092072, 0.15298599004745483, -0.11384537070989609, -0.1413252055644989, 0.04468156769871712, -0.012627586722373962, -0.11656120419502258, 0.032148636877536774, -0.10885492712259293, -0.1390249878168106, 0.06300999224185944, 0.18326164782047272, 0.07018127292394638, 0.07152939587831497, -0.013948680832982063, 0.13174651563167572, 0.010077680461108685, 0.059249360114336014, 0.017132915556430817, -0.024274524301290512, 0.07093736529350281, 0.11855798959732056, 0.10186347365379333, 0.09066011756658554, 0.022839948534965515, -0.00994647666811943, 0.16541552543640137, 0.03385217487812042, 0.10917039960622787, 0.07645392417907715, -0.05430562049150467, 0.03057732805609703, -0.007745893206447363, 0.18767604231834412, 0.08491741865873337, -0.04480252042412758, 0.07023199647665024, -0.053324826061725616, 0.16393713653087616, -0.0388924814760685, 0.07591397315263748, 0.21879391372203827, -0.13418196141719818, 0.06896533071994781, 0.14854176342487335, -0.21637339890003204, -0.05109085515141487, 0.00442885747179389, 0.06427502632141113, 0.02125038579106331, -0.03000791370868683, -0.13671338558197021, -0.14278849959373474, 0.18055061995983124, 0.1790870875120163, -0.040816064924001694, -0.014935346320271492, 0.08944983780384064, -0.0285200048238039, 0.01901392824947834, 0.10029370337724686, -0.013852488249540329, -0.118962861597538, 0.045332666486501694, -0.07583807408809662, -0.04012750834226608, 0.012461443431675434, -0.09112255275249481, 0.13170208036899567, 0.037273116409778595, 0.06699401140213013, 0.07429371029138565, 0.0702335387468338, -0.009763543494045734, 0.04475906491279602, -0.07486303150653839, -0.017759572714567184, 0.07184002548456192, -0.06736293435096741, 0.005757187958806753, 0.11430265754461288, -0.13611696660518646, -0.056616753339767456, 0.16088150441646576, -0.04110601171851158, -0.08816727250814438, -0.13946180045604706, 0.19601650536060333, -0.09709388762712479, -0.11360235512256622, 0.12886765599250793, -0.03860427811741829, 0.12377824634313583, 0.06492983549833298, 0.09067247807979584, -0.014993720687925816, -0.10416437685489655, 0.053721729665994644, 0.16188275814056396, 0.0035822263453155756, 0.10787047445774078, -0.025543278083205223, -0.07304319739341736, -0.13905152678489685, 0.05287026986479759, 0.1503392606973648, -0.17204955220222473, -0.2080029547214508, -0.20854048430919647, 0.012300685048103333, 0.03019573912024498, -0.13588128983974457, 0.1154671162366867, 0.0384480319917202, -0.09924080967903137, 0.01870547980070114, -0.045679930597543716, -0.040829144418239594, 0.06521464139223099, 0.048501770943403244, -0.15399158000946045, 0.24344870448112488, 0.2521425783634186, -0.09817872941493988, 0.06522398442029953, -0.017052199691534042, -0.057695791125297546, -0.05046771466732025, -0.14167146384716034, 0.11952947080135345, 0.09767774492502213, 0.0481245331466198, -0.1329200714826584, 0.06023802235722542, 0.02033073455095291, -0.19588401913642883, -0.07697433978319168, 0.09829352796077728, 0.04719310253858566, -0.03302914276719093, -0.08294333517551422, -0.16095073521137238, 0.07501031458377838, -0.04963735491037369, 0.1717810481786728, -0.020139995962381363, -0.040860261768102646, -0.21391770243644714, -0.08123601973056793, 0.1577487587928772, -0.09391409158706665, 0.07950205355882645, -0.1288696676492691, 0.020266365259885788, -0.002704723970964551, 0.03204056993126869, -0.03761882334947586, -0.010129164904356003, -0.013202758505940437, -0.03523152321577072, 0.05504605174064636, 0.025548720732331276, 0.1448100507259369, 0.1362842321395874, 0.03988313302397728, -0.02380864880979061, 0.056553252041339874, 0.1559416949748993, -0.058950405567884445, -0.004116598516702652, 0.061131272464990616, -0.12160897254943848, 0.14307425916194916, 0.09734679758548737, -0.17175263166427612, -0.10760298371315002, 0.1174621656537056, 0.06366696208715439, 0.02029598318040371, -0.10225557535886765, 0.13909702003002167, 0.07099699229001999, 0.016765715554356575, 0.15186649560928345, 0.7102290391921997, 0.23240554332733154, 0.5433271527290344, -0.937002420425415, -0.4957066774368286, 0.04711688309907913, 0.3867906332015991, -0.06916359812021255, 0.3380795419216156, 0.2747434377670288, -0.8966976404190063, 0.34299591183662415, -0.051300689578056335, -0.6257983446121216, 0.038273025304079056, -0.2445354163646698, -0.14785237610340118, -0.21433044970035553, 0.16589926183223724, -0.2860155999660492, 0.09296394884586334, 0.21368587017059326, -0.03037470579147339, -0.19733040034770966, -0.30889397859573364, -0.07800047844648361, -0.12985672056674957, -0.08345446735620499, 0.060443662106990814, -0.09621907025575638, 0.25736919045448303, -0.147594153881073, -0.0909208357334137, -0.18859373033046722, 0.0778142660856247, -0.17387604713439941, 0.02422267198562622, -0.011021404527127743, 0.17398393154144287, -0.0645977184176445, -0.06046526879072189, 0.012207863852381706, -0.17973172664642334, 0.10448849946260452, -0.07682322710752487, 0.13424591720104218, 0.08774197101593018, 0.17707005143165588, -0.0672076866030693, 0.0915820449590683, -0.11242128163576126, -0.1518850177526474, -0.04631391912698746, -0.1628532111644745, -0.2311857044696808, -0.0005484643625095487, 0.19498705863952637, -0.08601846545934677, 0.057629961520433426, -0.1278003454208374, 0.02306719310581684, 0.1231875941157341, -0.05950433015823364, 0.19365549087524414, -0.1498974859714508, -0.0660424530506134, -0.13566496968269348, 0.20032545924186707, 0.21852247416973114, 0.1992780566215515, 0.22770558297634125, 0.008347111754119396, -0.2729259431362152, -0.13932938873767853, 0.10714568197727203, -0.19063839316368103, 0.19132937490940094, 0.07776015996932983, 0.09339051693677902, -0.2919248640537262, 0.1845199316740036, -0.007882515899837017, -0.11044079810380936, 0.02939031273126602, 0.051035188138484955, -0.07004547119140625, 0.09615125507116318, -0.1780008226633072, 0.29792213439941406, 0.1910603791475296, 0.02385568618774414, 0.06007516756653786, -0.23538106679916382, -0.17617273330688477, -0.21006591618061066, -0.16491210460662842, -0.2402142584323883, 0.1449345499277115, 0.1207088828086853, 0.04019566997885704, -0.03860974684357643, 0.2590048313140869, -0.05148300528526306, -0.13722234964370728, 0.17574776709079742, 0.1201474666595459, -0.26089048385620117, 0.17217986285686493, -0.07100727409124374, 0.007783082313835621, -0.24749219417572021, 0.014968480914831161, -0.12712660431861877, -0.15302979946136475, -0.07252704352140427, -0.11180265247821808, -0.06150176376104355, -0.1629553884267807, 0.1796298772096634, 0.05266616865992546, -0.250373512506485, 0.03273818641901016, 0.07078676670789719, -0.006823231931775808, 0.08902016282081604, -0.04003565385937691, 0.09195783734321594, -0.23483148217201233, -0.13715557754039764, 0.1559508591890335, -0.14010922610759735, 0.07040346413850784, 0.11335945874452591, -0.25925812125205994, -0.1641686111688614, 0.251240074634552, 0.08641329407691956, 0.11832418292760849, 0.04539482295513153, 0.06873584538698196, -0.1874401718378067, 0.10406959056854248, 0.13297583162784576, -0.0013811473036184907, -0.23284953832626343, 0.11435858905315399, -0.08387421816587448, 0.09300729632377625, 0.11656300723552704, 0.0546145923435688, -0.1598016917705536, -0.1096704825758934, -0.06738777458667755, -0.051357682794332504, 0.011763770133256912, -0.10705166310071945, 0.17341099679470062, 0.16557590663433075, 0.07399825751781464, 0.08860582858324051, 0.03129563108086586, 0.16353271901607513, 0.07960125803947449, -0.13242265582084656, -0.06621021032333374, 0.13148880004882812, -0.22604291141033173, -0.035874832421541214, -0.22047781944274902, -0.17145812511444092, 0.0701872706413269, -0.2139453887939453, 0.19023019075393677, -0.20655326545238495, 0.25835174322128296, -0.014068536460399628, -0.0888405591249466, 0.12722967565059662, -0.2249966859817505, -0.1621301919221878, -0.1626245528459549, 0.014903794974088669, 0.040384501218795776, -0.1504342406988144, 0.17129205167293549, -0.010378829203546047, -0.07985395193099976, 0.029423605650663376, -0.08685866743326187, 0.0834844782948494, 0.09018822759389877, -0.09034347534179688, 0.025526857003569603, 0.18174144625663757, -0.16513454914093018, -0.16211241483688354, 0.021204618737101555, -0.16199244558811188, 0.04431436210870743, -0.014261094853281975, -0.22914645075798035, -0.026649031788110733, 0.23611976206302643, 0.09630326181650162, -0.10947476327419281, 0.21384024620056152, -0.13178135454654694, -0.1928916573524475, 0.15328224003314972, 0.20958803594112396, 0.2620513141155243, 0.3704887628555298, -0.1588166356086731, -0.01637226529419422, -0.1089625433087349, 0.0504886656999588, 0.13242919743061066, 0.17505289614200592, -0.17419923841953278, -0.018045298755168915, -0.1678253412246704, 0.14448954164981842, -0.10283645987510681, -0.14926335215568542, -0.06922662258148193, 0.07833873480558395, -0.024180341511964798, 0.34314990043640137, 0.01579931750893593, 0.07065575569868088, -0.06267791986465454, 0.05789387226104736, -0.0579889714717865, 0.1907547265291214, 0.1503356695175171, -0.08968605846166611, -0.19297932088375092, -0.2170872539281845, -0.05278072878718376, 0.05244072154164314, 0.26591578125953674, 0.014547008089721203, 0.14926868677139282, 0.2582637369632721, -0.2795088291168213, -0.2427351176738739, 0.11952344328165054, 0.22120122611522675, -0.04428859055042267, 0.17832951247692108, -0.2611747980117798, 0.10348858684301376, 0.057651299983263016, 0.02856861986219883, -0.11301280558109283, 0.21130278706550598, -0.07553159445524216, 0.15185301005840302, -0.17902444303035736, -0.17537789046764374, -0.3479691445827484, -0.29561012983322144, 0.1232038363814354, 0.05928626284003258, -0.17072176933288574, 0.15232644975185394, -0.143436461687088, 0.018390052020549774, 0.09397531300783157, 0.0115793626755476, 0.15248827636241913, 0.06351269781589508, -0.19282682240009308, 0.05406733602285385, 0.16283568739891052, 0.02549351006746292, 0.037225496023893356, 0.04101111367344856, 0.02752799168229103, 0.0993722602725029, -0.24965102970600128, 0.22935371100902557, 0.09826761484146118, 0.01531609334051609, -0.03278534114360809, -0.23941294848918915, -0.09750581532716751, 0.030267445370554924, 0.19896449148654938, -0.10721281915903091, -0.05180366337299347, -0.059326715767383575, 0.09039338678121567, -0.12891650199890137, -0.018532095476984978, 0.09537795931100845, -0.04862812161445618, -0.00041944108670577407, -0.0452931709587574, 0.06350189447402954, 0.025912577286362648, 0.06728018820285797, -0.15237972140312195, 0.15469323098659515, 0.04320356994867325, 0.020505253225564957, 0.07769791781902313, 0.003172163851559162, 0.0631522461771965, 0.23857396841049194, 0.24071305990219116, -0.15093877911567688, -0.03921625390648842, -0.15166278183460236, 0.13541336357593536, 0.20825745165348053, -0.0834355354309082, -0.12041015923023224, 0.05026812478899956, 0.07866973429918289, -0.03712006285786629, 0.10502207279205322, -0.023007092997431755, -0.13980340957641602, -0.028670931234955788, 0.07270713150501251, 0.1876024752855301, -0.17284810543060303, -0.14731967449188232, -0.018250998109579086, 0.004458686802536249, -0.09161750227212906, -0.001264264457859099, -0.04282599315047264, 0.04687007516622543, 0.04642904922366142, 0.0668310895562172, 0.05888892710208893, 0.061058782041072845, 0.04341474547982216, -0.050412774085998535, 0.05791003257036209, -0.2205621302127838, -0.1585901379585266, -0.04337172582745552, -0.0996459424495697, 0.05284883826971054, -0.011214213445782661, 0.1825748085975647, 0.09036795049905777, 0.019010664895176888, 0.053272463381290436, 0.0028795404359698296, -0.06339770555496216, -0.1395617127418518, 0.11091433465480804, 0.1302882432937622, -0.12248101085424423, -0.015179104171693325, -0.14788968861103058, -0.09528657048940659, 0.02981080301105976, 0.07873361557722092, 0.03402863070368767, 0.0734250470995903, -0.0376228466629982, 0.0372006930410862, -0.08271003514528275, 0.059521861374378204, -0.19017674028873444, -0.04167523235082626, -0.10762158781290054, -0.07716963440179825, -0.1789630800485611, 0.040177375078201294, -0.016237348318099976, -0.10548610985279083, 0.08255639672279358, 0.10438990592956543, 0.10905768722295761, 0.019148899242281914, -0.10738584399223328, -0.006230929400771856, -0.12546782195568085, -0.2956790030002594, -0.0858273059129715, 0.15058815479278564, 0.0429556742310524, 0.1541413813829422, 0.20212417840957642, 0.010339610278606415, -0.05273659899830818, -0.05949272960424423, -0.13896360993385315, 0.1282384693622589, -0.08782564848661423, -0.14844635128974915, -0.12793424725532532, -0.025584174320101738, 0.004962485749274492, 0.0862235426902771, 0.20864063501358032, -0.07064361125230789, -0.11834335327148438, -0.07816575467586517, -0.13145504891872406, -0.07122715562582016, -0.047367680817842484, 0.1099502220749855, -0.0942174643278122, -0.1838219165802002, -0.004937365651130676, -0.12454160302877426, 0.1489683836698532, 0.23461869359016418, 0.12682141363620758, -0.013855434022843838, 0.02114766836166382, 0.11126549541950226, 0.10852717608213425, 0.06470927596092224, 0.016580156981945038, -0.0897514671087265, 0.15727968513965607, 0.0894939973950386, -0.050871264189481735, 0.08187154680490494, -0.07459893822669983, 0.12219107896089554, -0.001356391585431993, -0.15456140041351318, 0.006076553370803595, -0.25801241397857666, -0.079038605093956, 0.1547948718070984, 0.020629381760954857, 0.030858421698212624, -0.1059950739145279, 0.11762438714504242, 0.13826267421245575, -0.03242935240268707, 0.024600179865956306, -0.03990297392010689, 0.08109898120164871, 0.029633203521370888, 0.018281269818544388, 0.0915001705288887, -0.05811147764325142, -0.04165926203131676, 0.18380260467529297, 0.08301010727882385, -0.1335766464471817, 0.09419809281826019, 0.10287245362997055, -0.0370832234621048, -0.07614661753177643, 0.053776368498802185, 0.027725903317332268, 0.0705316811800003, -0.22051601111888885, 0.033042874187231064, 0.09492562711238861, 0.0847943127155304, 0.06017185375094414, -0.037387918680906296, -0.06918786466121674, -0.07059962302446365, -0.02467428147792816, 0.09792063385248184, 0.06566839665174484, -0.10161197930574417, -0.0008841606904752553, 0.10125627368688583, -0.2062729150056839, 0.15640732645988464, -0.11703624576330185, 0.05016491562128067, 0.09405242651700974, -0.02043219283223152, 0.05826858431100845, 0.05308327078819275, 0.05157432332634926, 0.029304197058081627, -0.019458353519439697, 0.07540976256132126, -0.012241372838616371, 0.0705842599272728, 0.05124657601118088, 0.16171149909496307, -0.0844506025314331, 0.02739536389708519, 0.1278620809316635, 0.09617100656032562, 0.052678558975458145, 0.05095639079809189, 0.15375088155269623, 0.020926611497998238, -0.2546215057373047, 0.12291423976421356, -0.03620927035808563, -0.06749019771814346, 0.1382482647895813, 0.1382356584072113, -0.07218057662248611, -0.04688359797000885, -0.07414598762989044, 0.23134751617908478, 0.15956073999404907, 0.09967096894979477, -0.04456665366888046, -0.11058040708303452, 0.02287079021334648, -0.03496336191892624, 0.1381375938653946, -0.10300188511610031, -0.14974495768547058, -0.19561736285686493, 0.08609314262866974, 0.11901039630174637, -0.049475908279418945, -0.00750341359525919, 0.08398058265447617, -0.0924287661910057, 0.01851828582584858, -0.054343897849321365, -0.059356436133384705, 0.03919794782996178, 0.15731610357761383, -0.0118336146697402, 0.11861232668161392, -0.14285977184772491, -0.06333824247121811, 0.010684520937502384, -0.010101174004375935, 0.0746903270483017, -0.016002429649233818, 0.00738534377887845, -0.06348375231027603, -0.08660148084163666, -0.005149475764483213, -0.08717256039381027, -0.03022064082324505, -0.03327465429902077, -0.048840831965208054, -0.0291322972625494, -0.03005966916680336, 0.12606215476989746, -0.02110571227967739, -0.15614178776741028, 0.009385262615978718, 0.1305350512266159, -0.04929323121905327, -0.09808801859617233, -0.1994040459394455, 0.05934494361281395, 0.05372730270028114, 0.1079539954662323, -0.2308148443698883, 0.02263546921312809, 0.0550655834376812, 0.08499877154827118, -0.12126524746417999, 0.1607755571603775, 0.01401878148317337, 0.024920033290982246, -0.09233693778514862, -0.043700847774744034, -0.1858101487159729, -0.14204488694667816, 0.08364465087652206, -0.031139271333813667, 0.16335967183113098, -0.15632466971874237, 0.08457891643047333, 0.11980549246072769, 